~o
<STREAMINFO> 1 39
<VECSIZE> 39<NULLD><MFCC_D_A_Z_0><DIAGC>
~h "cau"
<BEGINHMM>
<NUMSTATES> 7
<STATE> 2
<MEAN> 39
 -1.401820e+01 -2.229041e+00 3.043782e+00 -3.198963e+00 2.382590e+00 4.463994e+00 -5.152209e-01 -5.145255e-01 1.579263e+00 -4.494426e-01 1.282130e+00 6.326540e-01 6.254910e-01 -2.104338e+00 4.904425e-01 1.010657e+00 -8.775134e-01 -4.955010e-01 4.649571e-02 1.582697e-01 5.635438e-02 2.384759e-01 -5.083974e-02 2.253518e-01 7.974201e-02 3.405984e+00 -1.193234e-01 7.066011e-01 3.219257e-01 7.366431e-01 1.847575e-01 6.127555e-02 3.762924e-01 7.917822e-02 -4.695838e-02 8.086982e-02 -3.438696e-03 -6.449262e-02 -8.290321e-01
<VARIANCE> 39
 3.441193e+01 5.102369e+01 3.928968e+01 4.162022e+01 4.543450e+01 3.549155e+01 4.574143e+01 3.838275e+01 2.500592e+01 2.638024e+01 2.653195e+01 2.104034e+01 5.536554e+01 2.870676e+00 4.537930e+00 3.811500e+00 4.456611e+00 3.267795e+00 2.849003e+00 3.073815e+00 2.573818e+00 2.392030e+00 2.898618e+00 2.103328e+00 1.902257e+00 5.588229e+00 5.678051e-01 8.253509e-01 5.595228e-01 7.723842e-01 6.127402e-01 5.782620e-01 6.264420e-01 5.226505e-01 5.290126e-01 5.597659e-01 4.025775e-01 3.726878e-01 9.574381e-01
<GCONST> 1.260682e+02
<STATE> 3
<MEAN> 39
 -2.180391e+01 2.385173e+00 1.006328e+01 -7.945256e-01 3.349736e+00 6.487355e+00 2.211222e+00 2.253254e-01 2.324626e+00 -5.064991e-01 1.547295e+00 8.764618e-01 3.487960e+00 -8.637606e-01 4.177646e-01 8.849846e-01 2.609948e-01 -4.027711e-01 2.554682e-01 7.702544e-01 1.154712e-02 1.691792e-01 7.795253e-02 6.293742e-02 -3.792953e-02 1.357153e+00 7.299842e-01 -3.883109e-01 -4.776956e-01 -3.561040e-02 -2.255595e-01 -2.477858e-01 -7.303689e-02 -6.465865e-02 -9.543315e-02 1.167051e-02 -1.707171e-02 2.547982e-02 -3.396716e-01
<VARIANCE> 39
 1.120075e+01 3.076808e+01 2.745383e+01 3.218159e+01 3.861050e+01 3.278226e+01 4.175080e+01 3.205546e+01 2.991241e+01 2.570989e+01 2.541489e+01 2.247796e+01 2.124772e+01 2.248034e+00 2.142500e+00 2.508504e+00 2.626956e+00 2.243845e+00 2.266685e+00 2.133231e+00 2.174338e+00 2.112670e+00 2.060662e+00 1.932048e+00 1.718180e+00 1.279680e+00 3.057478e-01 3.273551e-01 3.840092e-01 4.740064e-01 3.930808e-01 3.941875e-01 4.252633e-01 3.906019e-01 4.000784e-01 3.943178e-01 3.614925e-01 3.764682e-01 2.552750e-01
<GCONST> 1.113596e+02
<STATE> 4
<MEAN> 39
 -1.988288e+01 1.834485e+00 8.370197e+00 -2.001193e+00 6.270995e-01 4.990723e+00 3.529583e+00 7.840346e-02 1.797120e+00 -4.228709e-01 1.653989e+00 9.509569e-01 7.408880e+00 4.613998e-01 -3.357303e-01 -3.036280e-01 1.084564e-01 -5.293394e-01 -5.134277e-01 1.614926e-01 6.924900e-02 -1.890939e-01 -3.334889e-02 3.689844e-03 1.217705e-02 8.209583e-02 1.589274e-01 -6.474370e-02 -8.790570e-02 7.329330e-02 4.402510e-02 -1.082584e-01 -8.677644e-02 3.536069e-02 -5.800298e-03 -3.439634e-02 -2.178608e-02 -3.396361e-03 -2.697976e-01
<VARIANCE> 39
 1.116762e+01 2.891532e+01 3.211201e+01 2.606012e+01 4.329659e+01 3.234259e+01 3.920471e+01 3.223627e+01 3.341867e+01 2.950344e+01 2.981239e+01 2.197821e+01 1.167920e+01 6.981801e-01 1.048434e+00 1.511959e+00 1.613954e+00 1.835989e+00 2.181921e+00 2.184880e+00 2.378735e+00 2.428717e+00 2.193797e+00 1.928751e+00 1.925142e+00 6.284743e-01 1.485910e-01 1.714266e-01 3.013971e-01 3.093252e-01 3.082634e-01 3.885220e-01 4.164146e-01 4.676074e-01 4.770533e-01 4.396904e-01 3.728197e-01 3.798800e-01 9.546325e-02
<GCONST> 1.048768e+02
<STATE> 5
<MEAN> 39
 -1.472446e+01 -3.528205e+00 4.386718e+00 1.667040e+00 -3.188994e+00 -1.110552e+00 4.259357e+00 1.211722e+00 1.234374e+00 -6.597445e-01 1.186356e+00 8.988528e-01 5.500065e+00 1.476619e+00 -3.993756e-01 -5.748410e-01 5.885993e-01 3.197629e-01 -8.782030e-01 -2.486221e-01 2.577287e-01 8.454558e-02 -1.432987e-01 -9.386320e-02 -5.858243e-02 -1.123680e+00 3.961149e-01 2.111504e-01 1.627664e-01 8.202453e-02 2.485083e-01 1.661073e-01 -1.413462e-01 -5.178981e-02 -1.763502e-02 -1.999148e-02 -8.449894e-02 -4.908393e-02 -1.899073e-01
<VARIANCE> 39
 2.040950e+01 2.089717e+01 2.868450e+01 3.631871e+01 4.108009e+01 4.418029e+01 4.609595e+01 4.121743e+01 3.831934e+01 3.387007e+01 3.313298e+01 2.657301e+01 1.767876e+01 1.145007e+00 1.080912e+00 1.774380e+00 2.354832e+00 2.735907e+00 2.875596e+00 2.853976e+00 3.278834e+00 2.913851e+00 3.132546e+00 2.756331e+00 2.328909e+00 6.932850e-01 3.002736e-01 2.072332e-01 2.850397e-01 4.236237e-01 4.550012e-01 5.457032e-01 5.859522e-01 6.416786e-01 6.189739e-01 6.358757e-01 5.709857e-01 4.862657e-01 1.949624e-01
<GCONST> 1.150914e+02
<STATE> 6
<MEAN> 39
 -6.283220e+00 -6.103770e-01 5.646758e+00 2.852148e+00 4.110706e-01 -9.454684e-01 1.713177e+00 6.899969e-01 8.851368e-01 -1.653632e+00 4.033922e-01 2.591484e-01 1.615724e-01 3.561231e+00 3.452261e-01 -2.130697e-01 1.837902e-01 -2.359352e-01 -5.807248e-01 -1.179729e+00 -1.927447e-01 -3.528538e-01 -3.137039e-01 -2.746099e-01 -1.107977e-01 -7.333582e-01 2.142529e-03 -1.868061e-01 -2.422457e-01 -3.767397e-01 -3.012298e-01 -7.037720e-02 -1.772174e-01 1.203062e-03 1.059157e-02 8.819135e-02 1.062395e-01 5.286623e-02 4.161112e-01
<VARIANCE> 39
 7.764742e+01 4.020863e+01 5.195554e+01 3.918632e+01 6.175859e+01 5.567747e+01 5.026284e+01 4.395201e+01 4.723674e+01 3.600538e+01 3.079065e+01 2.527713e+01 4.346563e+01 4.179694e+00 3.267421e+00 3.689612e+00 3.598571e+00 5.253332e+00 4.876376e+00 5.730673e+00 4.027939e+00 4.480102e+00 3.909606e+00 3.540311e+00 2.529624e+00 6.580801e+00 7.499455e-01 5.660437e-01 5.018688e-01 5.824717e-01 7.019709e-01 7.687683e-01 8.567576e-01 6.845170e-01 7.457095e-01 6.961395e-01 6.077793e-01 4.552783e-01 5.994160e-01
<GCONST> 1.338860e+02
<TRANSP> 7
 0.000000e+00 1.000000e+00 0.000000e+00 0.000000e+00 0.000000e+00 0.000000e+00 0.000000e+00
 0.000000e+00 5.791314e-01 4.208685e-01 0.000000e+00 0.000000e+00 0.000000e+00 0.000000e+00
 0.000000e+00 0.000000e+00 6.747206e-01 3.252794e-01 0.000000e+00 0.000000e+00 0.000000e+00
 0.000000e+00 0.000000e+00 0.000000e+00 8.346819e-01 1.653181e-01 0.000000e+00 0.000000e+00
 0.000000e+00 0.000000e+00 0.000000e+00 0.000000e+00 7.291053e-01 2.708947e-01 0.000000e+00
 0.000000e+00 0.000000e+00 0.000000e+00 0.000000e+00 0.000000e+00 6.788960e-01 3.211041e-01
 0.000000e+00 0.000000e+00 0.000000e+00 0.000000e+00 0.000000e+00 0.000000e+00 0.000000e+00
<ENDHMM>
