~o
<STREAMINFO> 1 39
<VECSIZE> 39<NULLD><MFCC_D_A_Z_0><DIAGC>
~h "cav"
<BEGINHMM>
<NUMSTATES> 7
<STATE> 2
<MEAN> 39
 -1.156936e+01 -1.576853e+00 4.964323e+00 -1.537044e+00 2.562330e+00 4.213812e+00 -4.123431e-01 -2.067513e+00 1.060489e+00 -1.819573e+00 6.327587e-01 7.689600e-02 -6.240320e-01 -2.981599e+00 -2.810092e-01 5.349003e-01 -1.490571e+00 -4.806042e-01 1.535085e-01 1.924703e-01 5.188721e-01 5.781138e-01 2.034882e-01 6.137515e-01 3.063757e-01 3.151703e+00 1.421661e-01 1.016938e+00 4.429647e-01 8.834088e-01 -1.932985e-02 -1.924217e-01 2.209803e-01 -3.574743e-02 -1.893655e-01 -1.646467e-02 -1.884637e-01 -4.933630e-02 -6.811563e-01
<VARIANCE> 39
 3.639576e+01 5.471913e+01 5.203193e+01 5.899766e+01 4.784304e+01 4.029842e+01 4.342039e+01 3.820521e+01 3.373643e+01 2.680344e+01 2.980865e+01 2.344624e+01 4.772593e+01 2.990908e+00 6.156950e+00 3.980652e+00 5.591523e+00 3.062132e+00 3.176385e+00 3.557891e+00 2.899087e+00 3.050769e+00 2.863629e+00 2.792485e+00 1.922609e+00 4.416509e+00 6.606064e-01 9.536672e-01 7.102047e-01 9.840968e-01 6.929287e-01 6.829340e-01 7.034561e-01 6.366391e-01 5.729321e-01 4.895083e-01 4.531504e-01 4.124147e-01 9.192876e-01
<GCONST> 1.300567e+02
<STATE> 3
<MEAN> 39
 -2.018070e+01 4.513416e+00 1.069876e+01 -1.099753e-01 3.714898e+00 5.031472e+00 6.382583e-01 -4.762209e-01 1.140574e+00 -1.918973e+00 1.049382e+00 2.039921e-01 1.826308e+00 -1.379088e+00 5.184785e-01 8.869014e-01 2.679847e-01 -4.695531e-01 1.408498e-01 7.284584e-01 8.249358e-02 2.239756e-01 2.968426e-01 8.858889e-02 5.383114e-02 1.081883e+00 1.032846e+00 -2.790856e-01 -2.846983e-01 1.817243e-01 -2.342312e-01 -2.313464e-01 -1.506984e-02 -1.344106e-01 -1.366383e-01 1.714580e-02 -1.035936e-01 -5.527044e-02 -3.847082e-01
<VARIANCE> 39
 2.551303e+01 3.695701e+01 4.225309e+01 3.435765e+01 4.438832e+01 4.368486e+01 3.592724e+01 4.025982e+01 3.502586e+01 2.983497e+01 3.157782e+01 2.089960e+01 1.990005e+01 2.736505e+00 2.985090e+00 3.240084e+00 2.928352e+00 2.515054e+00 2.511294e+00 2.253392e+00 2.742863e+00 2.219350e+00 2.144435e+00 1.856124e+00 1.674834e+00 1.322778e+00 3.965295e-01 4.792539e-01 5.275458e-01 5.048272e-01 4.501895e-01 5.293919e-01 4.389133e-01 5.150205e-01 4.664005e-01 4.591734e-01 4.272490e-01 3.312745e-01 3.318495e-01
<GCONST> 1.175731e+02
<STATE> 4
<MEAN> 39
 -1.849556e+01 2.271404e-01 8.560543e+00 -3.804614e-01 -5.860828e-01 3.423981e+00 3.706689e+00 -7.661551e-01 8.736787e-01 5.315654e-01 8.521333e-01 6.599910e-01 3.735366e+00 6.692501e-01 -3.614666e-01 -2.004228e-01 2.077551e-01 -5.111752e-01 -4.923385e-01 2.241973e-01 3.183519e-03 -1.843350e-01 7.873681e-02 -1.440914e-02 -4.538631e-02 9.955624e-02 4.458375e-01 1.143471e-02 -3.420768e-02 9.839769e-02 5.439528e-03 -1.665227e-01 -1.394479e-01 -5.148740e-03 -9.934472e-02 -1.184959e-01 -3.807385e-02 -1.586258e-02 -2.228024e-01
<VARIANCE> 39
 2.446092e+01 3.244394e+01 3.533750e+01 3.425124e+01 4.948915e+01 3.769969e+01 4.019076e+01 3.882267e+01 3.527197e+01 3.124876e+01 3.192866e+01 2.456138e+01 1.640654e+01 8.939749e-01 9.931394e-01 1.718403e+00 1.898676e+00 2.200244e+00 2.465167e+00 2.361447e+00 2.550058e+00 2.608430e+00 2.251853e+00 2.178170e+00 1.986829e+00 8.613253e-01 3.693711e-01 2.319441e-01 3.844164e-01 3.991364e-01 4.122953e-01 5.009198e-01 4.739695e-01 4.818961e-01 5.113078e-01 4.507443e-01 4.290734e-01 4.014369e-01 1.010295e-01
<GCONST> 1.115355e+02
<STATE> 5
<MEAN> 39
 -1.422932e+01 1.598636e+00 1.108221e+01 2.449235e+00 -2.099306e+00 1.695157e+00 3.645838e+00 -1.844450e+00 -1.695206e-01 -1.134496e+00 1.511169e-01 -3.640127e-01 4.115607e+00 3.343850e+00 2.027422e-01 2.491734e-01 8.275085e-01 -1.124593e+00 -2.072854e+00 -6.969221e-01 -7.116793e-02 -7.370248e-01 -5.683946e-01 -1.877335e-01 1.006577e-02 -5.535271e-02 7.909576e-01 -1.541438e-01 -2.344750e-01 -2.170659e-01 -6.998233e-02 -4.038177e-01 -5.073521e-01 1.856717e-01 1.295307e-02 -1.191405e-01 8.124746e-02 2.078229e-01 6.852175e-03
<VARIANCE> 39
 2.540150e+01 3.740744e+01 3.250701e+01 3.834474e+01 4.478526e+01 4.408648e+01 4.411018e+01 4.512868e+01 3.399934e+01 3.233415e+01 2.936103e+01 2.718388e+01 1.743792e+01 2.640548e+00 1.782617e+00 2.803236e+00 2.501343e+00 3.767498e+00 3.503693e+00 3.221457e+00 3.142207e+00 2.892727e+00 2.924836e+00 2.542798e+00 2.373441e+00 1.265570e+00 3.337365e-01 4.847775e-01 4.315807e-01 4.314416e-01 6.584552e-01 6.540139e-01 6.154009e-01 5.996489e-01 6.096991e-01 6.434535e-01 4.914816e-01 4.780945e-01 2.830752e-01
<GCONST> 1.209620e+02
<STATE> 6
<MEAN> 39
 -4.588123e+00 1.006268e+00 8.453421e+00 3.391356e+00 -3.578689e+00 -4.536592e+00 3.898812e-01 -4.743963e-01 -1.301130e+00 -2.191942e+00 2.640196e-01 7.488468e-01 2.216650e+00 3.192769e+00 -5.266533e-01 -5.713755e-01 -1.235192e-01 -5.121291e-01 -1.394776e+00 -1.192707e+00 4.823569e-01 -1.716260e-01 -1.867053e-01 1.313076e-01 3.883768e-01 -3.241641e-01 -3.348473e-01 -3.003105e-01 -1.331537e-01 -2.555066e-01 1.586233e-01 3.209879e-01 6.231315e-03 1.312802e-01 1.017355e-01 1.728087e-01 9.415752e-02 8.354248e-03 2.195432e-02
<VARIANCE> 39
 4.677713e+01 3.245303e+01 3.827084e+01 4.255418e+01 5.289214e+01 5.228279e+01 4.757187e+01 4.246381e+01 3.956646e+01 3.788829e+01 2.894457e+01 2.820505e+01 4.827743e+01 3.933306e+00 3.605294e+00 3.001898e+00 2.931900e+00 5.978623e+00 5.921087e+00 4.850636e+00 4.016098e+00 4.022269e+00 3.821741e+00 3.080548e+00 2.604942e+00 4.187401e+00 3.770006e-01 4.880740e-01 3.881534e-01 4.699408e-01 6.637759e-01 6.900300e-01 6.888161e-01 6.750323e-01 5.549760e-01 5.353314e-01 5.179406e-01 4.873033e-01 3.826486e-01
<GCONST> 1.289462e+02
<TRANSP> 7
 0.000000e+00 1.000000e+00 0.000000e+00 0.000000e+00 0.000000e+00 0.000000e+00 0.000000e+00
 0.000000e+00 4.943211e-01 5.056789e-01 0.000000e+00 0.000000e+00 0.000000e+00 0.000000e+00
 0.000000e+00 0.000000e+00 5.904058e-01 4.095942e-01 0.000000e+00 0.000000e+00 0.000000e+00
 0.000000e+00 0.000000e+00 0.000000e+00 7.710823e-01 2.289177e-01 0.000000e+00 0.000000e+00
 0.000000e+00 0.000000e+00 0.000000e+00 0.000000e+00 4.942142e-01 5.057858e-01 0.000000e+00
 0.000000e+00 0.000000e+00 0.000000e+00 0.000000e+00 0.000000e+00 5.466788e-01 4.533212e-01
 0.000000e+00 0.000000e+00 0.000000e+00 0.000000e+00 0.000000e+00 0.000000e+00 0.000000e+00
<ENDHMM>
