~o
<STREAMINFO> 1 39
<VECSIZE> 39<NULLD><MFCC_D_A_Z_0><DIAGC>
~h "cfu"
<BEGINHMM>
<NUMSTATES> 7
<STATE> 2
<MEAN> 39
 -1.157741e+01 3.846563e+00 1.181977e+00 2.386539e+00 4.247052e+00 3.176686e-01 3.277899e+00 3.369951e-01 5.589621e-01 -7.360550e-01 -2.976118e-01 7.143735e-01 9.426703e-01 -2.653803e+00 -3.024768e-02 -6.110862e-01 -1.851592e-01 4.867436e-01 5.420150e-01 4.599798e-01 3.016266e-01 1.484455e-01 8.142291e-02 2.729957e-01 1.377464e-01 3.578960e-01 5.120371e-01 -9.538904e-02 -6.823648e-02 -1.156887e-01 -2.539983e-01 -9.804459e-02 -1.883136e-01 -4.680835e-02 -1.433088e-02 1.006220e-01 -1.489897e-02 1.702327e-02 2.539553e-02
<VARIANCE> 39
 5.771950e+01 4.304394e+01 5.279509e+01 4.754303e+01 5.209056e+01 5.019604e+01 4.558333e+01 4.685878e+01 4.271370e+01 3.928671e+01 3.486976e+01 2.859528e+01 3.622210e+01 3.691406e+00 2.746973e+00 3.364383e+00 3.334897e+00 3.837967e+00 3.915522e+00 3.923164e+00 3.859675e+00 3.768241e+00 3.430510e+00 3.092832e+00 2.733742e+00 2.130658e+00 4.805356e-01 5.018621e-01 5.180085e-01 6.184757e-01 6.456302e-01 7.041045e-01 7.081429e-01 7.074214e-01 6.849791e-01 6.448343e-01 5.717228e-01 5.251098e-01 2.792391e-01
<GCONST> 1.290545e+02
<STATE> 3
<MEAN> 39
 -1.432640e+01 -1.031971e-01 1.864369e+00 1.316171e+00 7.355087e-01 2.607115e+00 3.485214e+00 -2.729170e-01 1.304571e+00 -2.859367e-01 7.786452e-02 9.421503e-01 2.580267e+00 -2.284452e-01 3.398370e-02 -1.813737e-01 -2.829031e-02 1.262428e-02 3.383366e-02 1.457734e-02 -1.841292e-03 2.166013e-02 1.461824e-02 2.235063e-02 2.090481e-02 1.877577e-01 2.171250e-01 3.467191e-02 4.898221e-02 5.287960e-02 3.890094e-02 -4.605652e-02 -3.093867e-02 3.221896e-03 -1.561600e-02 -2.101571e-02 -2.457605e-02 -2.042799e-02 -3.632762e-02
<VARIANCE> 39
 5.741845e+01 3.294282e+01 6.926626e+01 3.889352e+01 4.762854e+01 4.515705e+01 4.731879e+01 4.258685e+01 3.893679e+01 3.500907e+01 3.456971e+01 2.730044e+01 3.364069e+01 6.465480e-01 8.749649e-01 1.257595e+00 1.602140e+00 1.981349e+00 2.318058e+00 2.515016e+00 2.601629e+00 2.587541e+00 2.532300e+00 2.360847e+00 2.081398e+00 4.296025e-01 1.425007e-01 1.543033e-01 2.471343e-01 3.104224e-01 3.780422e-01 4.505162e-01 4.926454e-01 5.103668e-01 5.111231e-01 5.060512e-01 4.732288e-01 4.172271e-01 5.852178e-02
<GCONST> 1.107986e+02
<STATE> 4
<MEAN> 39
 -1.947041e+01 7.289418e+00 -2.008005e+00 1.230327e+00 7.251820e+00 4.358028e-01 3.829454e+00 1.691865e+00 1.070148e+00 2.154352e-01 4.675792e-01 1.540021e+00 4.052418e+00 6.223598e-02 -7.603315e-02 1.701005e-02 -5.568701e-02 -7.791443e-03 -2.318383e-02 -6.258591e-02 2.474471e-02 2.844577e-02 1.543661e-02 -2.673467e-02 -1.062192e-02 -2.378922e-03 1.080262e-01 -1.040089e-01 4.195703e-02 -2.661826e-02 -5.727299e-02 -2.490288e-02 -1.954825e-02 -9.657748e-03 1.034596e-02 -7.759276e-03 -1.267603e-02 -1.376790e-02 -5.974093e-02
<VARIANCE> 39
 1.873272e+01 3.037718e+01 4.221468e+01 5.559747e+01 4.668250e+01 4.571077e+01 4.226324e+01 3.831863e+01 3.417683e+01 3.175348e+01 3.410320e+01 2.554785e+01 1.832251e+01 4.305148e-01 9.683864e-01 1.082921e+00 1.432326e+00 1.768093e+00 2.033854e+00 2.176218e+00 2.291820e+00 2.321383e+00 2.248100e+00 2.115533e+00 1.903378e+00 3.068848e-01 8.081882e-02 1.507906e-01 1.996313e-01 2.722349e-01 3.355402e-01 3.920061e-01 4.246210e-01 4.516142e-01 4.535701e-01 4.453921e-01 4.233761e-01 3.814033e-01 4.597770e-02
<GCONST> 1.043178e+02
<STATE> 5
<MEAN> 39
 -1.486130e+01 7.294778e-01 -8.865811e-01 2.473096e-01 3.939719e+00 4.243006e-01 2.383828e+00 1.127852e+00 1.738424e+00 2.573754e-01 2.034656e-01 1.075269e+00 1.982798e+00 1.399779e+00 -5.000083e-01 2.635388e-01 1.567875e-01 -8.546314e-02 2.525769e-02 -1.857614e-01 -1.469855e-01 3.953333e-02 2.729694e-02 -1.010840e-01 -1.363785e-01 -9.856066e-01 5.218056e-01 1.874259e-01 1.317101e-01 1.842036e-01 -9.086065e-03 5.420024e-02 -6.819766e-02 -1.095978e-01 -1.014289e-01 -2.409393e-02 -5.498590e-02 -5.843310e-02 -2.334807e-01
<VARIANCE> 39
 3.741457e+01 4.213504e+01 4.769978e+01 4.453041e+01 5.333095e+01 4.859472e+01 4.687861e+01 4.400830e+01 4.109216e+01 3.708144e+01 3.513145e+01 2.763735e+01 2.649434e+01 1.442152e+00 1.895965e+00 2.433691e+00 2.594378e+00 2.987407e+00 3.359896e+00 3.286955e+00 3.282693e+00 3.184733e+00 3.031666e+00 2.791471e+00 2.322861e+00 2.083375e+00 3.216030e-01 3.259425e-01 4.012969e-01 4.530690e-01 5.487834e-01 6.330268e-01 6.755409e-01 6.496914e-01 6.459256e-01 5.958720e-01 5.602816e-01 4.692565e-01 3.595599e-01
<GCONST> 1.229271e+02
<STATE> 6
<MEAN> 39
 -4.297584e+00 1.947885e+00 1.383897e+00 2.196630e+00 2.650166e+00 7.255380e-01 1.460677e+00 -4.834488e-01 5.374548e-01 -4.918314e-01 -8.639884e-01 4.213130e-02 -1.220137e+00 3.355370e+00 1.282907e-02 3.612782e-01 -2.789921e-01 -1.018364e+00 -4.581343e-01 -1.075972e+00 -3.976258e-01 -3.544576e-01 -6.777392e-02 -1.057013e-01 -2.189343e-01 2.043809e-01 -1.047519e-01 -2.995473e-01 -2.288116e-01 -3.626830e-01 -3.014008e-01 -1.294336e-01 -1.524540e-01 9.061234e-02 3.495086e-02 8.166149e-02 1.390666e-01 6.629919e-02 4.280421e-01
<VARIANCE> 39
 8.241537e+01 3.933689e+01 6.585158e+01 4.859031e+01 6.380872e+01 5.812394e+01 5.582069e+01 4.893821e+01 4.339643e+01 4.086343e+01 3.557972e+01 2.854526e+01 5.601204e+01 4.850080e+00 3.839810e+00 4.499854e+00 5.371293e+00 4.904303e+00 5.282550e+00 5.596424e+00 4.354950e+00 4.299835e+00 3.936457e+00 3.813442e+00 2.991371e+00 7.618585e+00 8.105451e-01 5.454971e-01 5.354391e-01 6.700355e-01 7.602137e-01 7.535323e-01 8.904970e-01 7.218472e-01 6.797972e-01 6.756552e-01 5.792865e-01 4.919903e-01 6.066905e-01
<GCONST> 1.368705e+02
<TRANSP> 7
 0.000000e+00 1.000000e+00 0.000000e+00 0.000000e+00 0.000000e+00 0.000000e+00 0.000000e+00
 0.000000e+00 6.933643e-01 3.066357e-01 0.000000e+00 0.000000e+00 0.000000e+00 0.000000e+00
 0.000000e+00 0.000000e+00 7.971397e-01 2.028603e-01 0.000000e+00 0.000000e+00 0.000000e+00
 0.000000e+00 0.000000e+00 0.000000e+00 8.697292e-01 1.302708e-01 0.000000e+00 0.000000e+00
 0.000000e+00 0.000000e+00 0.000000e+00 0.000000e+00 7.118144e-01 2.881856e-01 0.000000e+00
 0.000000e+00 0.000000e+00 0.000000e+00 0.000000e+00 0.000000e+00 6.302863e-01 3.697137e-01
 0.000000e+00 0.000000e+00 0.000000e+00 0.000000e+00 0.000000e+00 0.000000e+00 0.000000e+00
<ENDHMM>
