~o
<STREAMINFO> 1 39
<VECSIZE> 39<NULLD><MFCC_D_A_Z_0><DIAGC>
~h "cfv"
<BEGINHMM>
<NUMSTATES> 7
<STATE> 2
<MEAN> 39
 -4.163130e+00 6.838172e+00 1.965891e+00 2.481526e+00 2.747302e+00 -2.508975e+00 -1.310126e+00 -2.307013e+00 3.371141e-01 -8.735785e-01 -3.845956e-01 3.089502e-02 -6.625400e-01 -2.157824e+00 7.330080e-01 -1.840268e-01 2.561899e-01 1.042530e+00 6.705185e-01 5.400374e-01 7.911965e-02 -9.747305e-02 -2.164205e-01 5.036776e-02 -5.756256e-02 -5.644281e-02 9.833147e-02 -2.902608e-01 -3.032494e-02 -3.421746e-02 -1.347803e-01 8.980250e-02 7.357844e-02 1.696731e-01 -1.066593e-03 9.917286e-02 -6.407152e-02 1.299145e-02 5.588302e-02
<VARIANCE> 39
 7.723474e+01 5.383440e+01 5.257417e+01 5.336588e+01 5.229868e+01 5.757162e+01 5.493060e+01 4.601547e+01 4.108078e+01 4.048636e+01 3.557064e+01 3.245638e+01 4.860197e+01 4.630937e+00 3.083502e+00 3.310105e+00 4.360533e+00 4.382719e+00 4.896744e+00 4.195269e+00 3.926854e+00 3.747816e+00 3.464667e+00 3.076791e+00 2.664517e+00 5.186279e+00 3.879018e-01 6.073636e-01 5.646005e-01 6.291066e-01 6.182908e-01 6.732199e-01 6.979558e-01 6.476872e-01 6.193464e-01 6.214343e-01 5.505056e-01 4.850717e-01 5.566592e-01
<GCONST> 1.326440e+02
<STATE> 3
<MEAN> 39
 -3.091696e+00 6.691320e+00 7.497595e-01 3.931803e+00 3.895652e+00 -6.374304e-01 -1.334959e+00 -3.351767e+00 -7.178353e-01 -5.755587e-01 -6.678562e-01 -7.546240e-01 -1.690748e+00 -1.157220e+00 1.161268e-01 -9.592294e-02 1.839282e-01 3.896639e-01 3.438772e-01 5.159060e-01 3.109721e-01 2.125514e-02 -1.108589e-01 -1.034123e-01 4.073093e-02 -6.670830e-02 2.674347e-01 -2.372934e-01 -1.753318e-02 -1.669609e-01 -2.350475e-01 -1.379354e-01 -6.412195e-02 1.038354e-01 9.057910e-02 5.973467e-02 3.430142e-02 5.153652e-02 2.017935e-01
<VARIANCE> 39
 8.337307e+01 3.469182e+01 3.882854e+01 4.474726e+01 4.115192e+01 4.550813e+01 4.755935e+01 4.049361e+01 3.696268e+01 3.341940e+01 3.176306e+01 2.859394e+01 3.627739e+01 2.073472e+00 1.708321e+00 1.899042e+00 2.059950e+00 2.176142e+00 2.707268e+00 2.616237e+00 2.507690e+00 2.280118e+00 2.366611e+00 2.143375e+00 1.950294e+00 1.629161e+00 2.505521e-01 2.331366e-01 3.097348e-01 3.618056e-01 3.983986e-01 4.371229e-01 4.579053e-01 4.386387e-01 4.361588e-01 4.380393e-01 3.982306e-01 3.681696e-01 2.168073e-01
<GCONST> 1.161289e+02
<STATE> 4
<MEAN> 39
 -1.643311e+01 6.960927e+00 7.307079e-02 6.823103e-01 6.798693e+00 -2.205307e-01 2.704901e+00 1.201464e+00 9.651050e-01 -1.406495e-01 -1.230091e-01 9.854479e-01 1.737609e+00 2.916404e-02 -3.599663e-01 -1.148501e-01 -1.546970e-01 -1.493486e-01 -2.001118e-02 -5.845530e-06 1.071636e-01 9.735420e-02 5.546199e-02 4.357416e-02 3.861341e-02 1.191429e-01 3.451546e-01 -5.211545e-02 1.080271e-01 9.551123e-03 -1.192085e-01 -1.022895e-01 -1.313664e-01 -9.028158e-02 -6.787200e-03 -1.881621e-02 -3.073473e-02 -2.738705e-02 -4.405178e-02
<VARIANCE> 39
 4.410046e+01 3.682558e+01 5.130690e+01 5.641835e+01 5.391601e+01 5.006795e+01 4.911094e+01 4.267975e+01 3.824427e+01 3.367256e+01 3.420757e+01 2.644534e+01 2.082463e+01 1.360762e+00 1.211659e+00 1.528101e+00 1.756732e+00 2.159466e+00 2.485726e+00 2.676244e+00 2.654606e+00 2.565259e+00 2.518222e+00 2.396160e+00 2.040442e+00 7.850925e-01 1.881644e-01 2.036711e-01 2.595017e-01 3.292778e-01 4.103778e-01 4.810211e-01 5.160794e-01 5.145956e-01 4.997159e-01 5.019756e-01 4.783984e-01 3.987316e-01 9.761772e-02
<GCONST> 1.138965e+02
<STATE> 5
<MEAN> 39
 -9.841014e+00 4.024467e+00 9.398288e-01 2.611968e+00 4.165068e+00 1.829397e-02 1.418683e+00 -1.265976e-01 1.251932e+00 -7.036020e-01 -6.144797e-01 3.470484e-01 -1.045799e+00 1.994097e+00 -4.738247e-01 3.493713e-01 4.163692e-02 -7.082022e-01 -5.043462e-01 -5.067365e-01 -2.617614e-01 7.977620e-02 -1.231140e-03 -1.974755e-01 -1.533392e-01 -9.290124e-02 4.704489e-01 -4.939182e-02 -6.913123e-02 -7.289308e-02 -2.035786e-01 -1.263549e-01 -1.878778e-01 -5.427246e-02 -2.674506e-02 1.023290e-01 8.183723e-03 -1.475810e-02 -3.060387e-02
<VARIANCE> 39
 6.453721e+01 4.050708e+01 4.489613e+01 4.896898e+01 5.076283e+01 5.120583e+01 4.990009e+01 4.941591e+01 4.300189e+01 4.044179e+01 3.679646e+01 2.961271e+01 4.540958e+01 3.467195e+00 2.738282e+00 3.258937e+00 3.742403e+00 3.836350e+00 4.268409e+00 4.237178e+00 3.875281e+00 3.577055e+00 3.477299e+00 3.030649e+00 2.659371e+00 5.532389e+00 4.390860e-01 5.609325e-01 5.450782e-01 6.971495e-01 7.121950e-01 7.448319e-01 7.703884e-01 7.508119e-01 6.817371e-01 6.955281e-01 6.216794e-01 5.146499e-01 6.711950e-01
<GCONST> 1.320148e+02
<STATE> 6
<MEAN> 39
 5.822141e-02 2.936789e+00 1.319842e+00 1.556056e+00 -9.553687e-02 -3.755598e+00 -2.430296e+00 -1.388280e+00 9.742758e-01 -7.339329e-02 -1.149148e+00 -3.425061e-01 1.531659e+00 2.125028e+00 -1.238450e+00 -2.798373e-02 -8.933693e-01 -1.378810e+00 -7.213643e-01 -8.611038e-01 2.075472e-01 2.183016e-01 3.504708e-01 2.738788e-02 1.660616e-02 7.909679e-01 -3.813817e-01 -1.503389e-01 -7.595938e-02 -8.254889e-02 7.265640e-02 2.202242e-01 1.938298e-01 1.456791e-01 -4.739710e-03 4.484612e-02 6.687697e-02 4.569717e-02 -3.852064e-02
<VARIANCE> 39
 5.900565e+01 3.544239e+01 4.346319e+01 4.342343e+01 5.608382e+01 5.509307e+01 5.350373e+01 4.526680e+01 4.535173e+01 4.065327e+01 3.230618e+01 3.188090e+01 5.053844e+01 3.898738e+00 3.021745e+00 3.342654e+00 4.591022e+00 4.313630e+00 4.806079e+00 5.293242e+00 4.715201e+00 4.041924e+00 3.850424e+00 3.373642e+00 2.959571e+00 5.253284e+00 3.797723e-01 4.248073e-01 3.972397e-01 4.928681e-01 5.524777e-01 6.134742e-01 6.599246e-01 6.061073e-01 5.498407e-01 5.601299e-01 4.654694e-01 4.253649e-01 3.294052e-01
<GCONST> 1.298634e+02
<TRANSP> 7
 0.000000e+00 1.000000e+00 0.000000e+00 0.000000e+00 0.000000e+00 0.000000e+00 0.000000e+00
 0.000000e+00 4.698331e-01 5.301669e-01 0.000000e+00 0.000000e+00 0.000000e+00 0.000000e+00
 0.000000e+00 0.000000e+00 6.352652e-01 3.647348e-01 0.000000e+00 0.000000e+00 0.000000e+00
 0.000000e+00 0.000000e+00 0.000000e+00 8.201688e-01 1.798312e-01 0.000000e+00 0.000000e+00
 0.000000e+00 0.000000e+00 0.000000e+00 0.000000e+00 5.545149e-01 4.454851e-01 0.000000e+00
 0.000000e+00 0.000000e+00 0.000000e+00 0.000000e+00 0.000000e+00 4.196105e-01 5.803895e-01
 0.000000e+00 0.000000e+00 0.000000e+00 0.000000e+00 0.000000e+00 0.000000e+00 0.000000e+00
<ENDHMM>
