~o
<STREAMINFO> 1 39
<VECSIZE> 39<NULLD><MFCC_D_A_Z_0><DIAGC>
~h "cnv"
<BEGINHMM>
<NUMSTATES> 7
<STATE> 2
<MEAN> 39
 6.221514e+00 2.982559e+00 2.084338e+00 3.209835e+00 -1.038843e+00 -1.051933e+00 3.223475e-02 -2.928164e+00 -4.025152e+00 -6.877975e-02 -1.010748e+00 -1.916732e+00 -5.542521e-01 2.675783e-01 1.202174e+00 7.491515e-02 1.396416e+00 3.035770e-01 -6.281771e-01 7.356985e-01 -1.646338e+00 -1.152288e+00 6.541725e-01 -2.978053e-01 -2.803103e-01 -1.030843e+00 -1.071890e-01 -2.515536e-01 1.758312e-02 -1.950362e-01 -1.695015e-01 5.739611e-02 2.921524e-02 5.558432e-02 8.620536e-02 6.686016e-02 -2.505678e-02 3.513556e-02 2.411047e-01
<VARIANCE> 39
 1.767381e+01 3.330421e+01 3.786559e+01 4.816938e+01 5.344129e+01 5.327826e+01 5.686385e+01 6.519278e+01 6.127814e+01 5.334547e+01 5.056188e+01 3.930036e+01 2.741446e+01 2.020993e+00 2.834497e+00 4.280476e+00 3.825669e+00 4.784242e+00 4.501904e+00 5.162852e+00 5.750612e+00 5.699428e+00 4.533683e+00 4.024375e+00 3.171443e+00 2.864395e+00 2.498729e-01 3.094385e-01 3.888729e-01 4.648355e-01 5.489674e-01 5.555756e-01 6.050838e-01 7.175332e-01 6.488191e-01 5.783868e-01 5.103344e-01 4.123750e-01 2.265707e-01
<GCONST> 1.282708e+02
<STATE> 3
<MEAN> 39
 6.553209e+00 4.093835e+00 2.358633e+00 5.752760e+00 -1.363423e+00 -2.430756e+00 2.047856e+00 -6.847365e+00 -6.036927e+00 2.432840e+00 -2.150706e+00 -2.697089e+00 -1.352336e+00 2.361513e-02 5.409678e-01 2.693886e-01 6.589548e-01 -1.385076e-01 -2.288032e-01 5.225849e-01 -1.140353e+00 -6.579543e-01 5.851442e-01 -2.864634e-01 -1.071922e-01 -4.289689e-01 -7.350054e-02 -3.932632e-01 -3.329573e-02 -4.827491e-01 -8.982369e-02 2.232484e-01 -3.426587e-01 5.986081e-01 4.173805e-01 -3.008195e-01 1.238057e-01 1.130393e-01 3.359117e-01
<VARIANCE> 39
 1.236722e+01 2.567551e+01 2.917990e+01 4.129147e+01 5.206039e+01 5.221542e+01 6.167185e+01 6.404092e+01 5.995232e+01 5.373729e+01 5.771058e+01 4.735267e+01 1.997182e+01 5.713246e-01 1.570348e+00 1.840423e+00 2.091601e+00 2.257391e+00 2.546507e+00 3.084908e+00 3.596730e+00 3.433035e+00 2.906084e+00 2.602546e+00 2.214773e+00 1.077329e+00 1.791686e-01 2.776809e-01 4.244273e-01 3.942473e-01 5.241400e-01 5.278871e-01 6.183113e-01 6.703531e-01 7.114176e-01 5.761441e-01 5.357046e-01 4.324464e-01 2.017386e-01
<GCONST> 1.183181e+02
<STATE> 4
<MEAN> 39
 6.798283e+00 4.178509e+00 2.684833e+00 5.494127e+00 -1.506009e+00 -1.841008e+00 1.546275e+00 -6.773162e+00 -6.075056e+00 1.981789e+00 -1.784951e+00 -2.332811e+00 -1.420975e+00 -1.569284e-02 1.765857e-01 3.259628e-02 5.384667e-03 -4.603163e-02 6.760895e-02 1.003915e-02 -3.203488e-02 -2.845898e-02 4.494912e-03 -2.670347e-02 2.396238e-02 -1.467743e-01 -4.320634e-02 -6.472690e-02 -3.570263e-02 -1.146668e-01 3.434161e-02 4.953758e-02 -1.003548e-01 1.867198e-01 1.220658e-01 -1.131283e-01 3.778519e-02 2.858493e-02 5.048545e-02
<VARIANCE> 39
 1.094260e+01 2.396770e+01 2.723293e+01 4.119649e+01 5.447906e+01 5.315603e+01 6.024790e+01 6.213020e+01 5.795081e+01 5.186990e+01 5.667348e+01 4.447332e+01 1.851509e+01 2.335708e-01 6.422192e-01 6.286499e-01 8.183104e-01 1.116246e+00 1.209323e+00 1.424824e+00 1.525066e+00 1.529594e+00 1.440573e+00 1.392444e+00 1.197907e+00 4.042115e-01 5.722196e-02 1.260061e-01 1.551378e-01 1.957056e-01 2.326415e-01 2.656440e-01 3.046626e-01 3.585230e-01 3.515199e-01 3.068267e-01 2.807322e-01 2.447855e-01 7.072100e-02
<GCONST> 9.715871e+01
<STATE> 5
<MEAN> 39
 6.472764e+00 5.883847e+00 2.747865e+00 6.035864e+00 -1.600355e+00 -1.898117e+00 1.940882e+00 -7.134980e+00 -6.240232e+00 2.087245e+00 -2.230101e+00 -2.301015e+00 -2.960171e+00 -5.300311e-01 -2.683251e-01 9.417149e-02 -4.587812e-01 4.208788e-01 2.409865e-01 -6.881993e-01 8.151849e-01 6.335731e-01 -6.819176e-01 1.135387e-01 1.767756e-01 1.456440e-01 -2.323216e-01 -3.843144e-01 -8.863920e-03 -3.475492e-01 4.485067e-02 1.271469e-01 -2.238022e-01 4.609250e-01 3.481536e-01 -2.229404e-01 4.063792e-02 7.799419e-02 2.861432e-01
<VARIANCE> 39
 1.297096e+01 2.935485e+01 2.874427e+01 3.995309e+01 5.180317e+01 5.037952e+01 5.965900e+01 6.122151e+01 5.969690e+01 5.374024e+01 5.657221e+01 4.644168e+01 2.415349e+01 9.594461e-01 2.387982e+00 2.067676e+00 2.793779e+00 3.229742e+00 3.098257e+00 3.699753e+00 4.006417e+00 3.875914e+00 3.337630e+00 3.128957e+00 2.655410e+00 2.008166e+00 1.949652e-01 3.061309e-01 3.822493e-01 4.536225e-01 5.644345e-01 5.245503e-01 6.126999e-01 6.409774e-01 6.450617e-01 5.626684e-01 5.463704e-01 4.620334e-01 2.070692e-01
<GCONST> 1.221367e+02
<STATE> 6
<MEAN> 39
 3.752612e+00 2.834718e+00 2.747341e+00 2.747093e+00 -2.846707e-01 -7.578235e-01 -1.176969e+00 -2.612973e+00 -2.731568e+00 -9.710034e-01 -1.509405e+00 -1.497103e+00 -4.291475e-01 -9.532305e-01 -1.024841e+00 -1.598282e-01 -1.238449e+00 -5.635548e-02 5.623828e-01 -4.851494e-01 1.407002e+00 1.073396e+00 -5.373757e-01 2.142997e-01 2.988714e-01 8.272002e-01 -3.387145e-02 -2.693234e-02 -1.039093e-01 -1.665722e-02 -1.254692e-01 4.653661e-02 2.437231e-01 -5.284632e-02 -6.810421e-02 1.868585e-01 1.119890e-02 -1.656225e-02 -1.367664e-02
<VARIANCE> 39
 3.247908e+01 5.018297e+01 4.520444e+01 5.327918e+01 5.474971e+01 5.239023e+01 5.781683e+01 6.123055e+01 5.833802e+01 4.804062e+01 4.343928e+01 3.630661e+01 5.379647e+01 3.415875e+00 3.630574e+00 4.345420e+00 4.876373e+00 5.603586e+00 4.602888e+00 5.296301e+00 5.918722e+00 5.761368e+00 4.652740e+00 4.139501e+00 3.486190e+00 3.294555e+00 3.218195e-01 5.274815e-01 5.043679e-01 6.177101e-01 6.721292e-01 6.685595e-01 7.677711e-01 8.075492e-01 7.571405e-01 6.690692e-01 5.887497e-01 5.097808e-01 3.223751e-01
<GCONST> 1.344642e+02
<TRANSP> 7
 0.000000e+00 1.000000e+00 0.000000e+00 0.000000e+00 0.000000e+00 0.000000e+00 0.000000e+00
 0.000000e+00 4.287637e-01 5.712363e-01 0.000000e+00 0.000000e+00 0.000000e+00 0.000000e+00
 0.000000e+00 0.000000e+00 3.038433e-01 6.961567e-01 0.000000e+00 0.000000e+00 0.000000e+00
 0.000000e+00 0.000000e+00 0.000000e+00 7.986190e-01 2.013810e-01 0.000000e+00 0.000000e+00
 0.000000e+00 0.000000e+00 0.000000e+00 0.000000e+00 4.767433e-01 5.232567e-01 0.000000e+00
 0.000000e+00 0.000000e+00 0.000000e+00 0.000000e+00 0.000000e+00 5.281537e-01 4.718464e-01
 0.000000e+00 0.000000e+00 0.000000e+00 0.000000e+00 0.000000e+00 0.000000e+00 0.000000e+00
<ENDHMM>
