~o
<STREAMINFO> 1 39
<VECSIZE> 39<NULLD><MFCC_D_A_Z_0><DIAGC>
~h "cpu"
<BEGINHMM>
<NUMSTATES> 7
<STATE> 2
<MEAN> 39
 -8.589091e+00 -4.160763e+00 -1.607642e+00 8.894001e-01 3.624316e+00 1.060395e+00 1.491204e+00 1.278891e-01 4.743350e-01 1.493235e+00 4.511571e-01 1.200824e+00 -5.135058e-01 3.038453e-01 -1.134163e+00 -6.313469e-01 -1.975342e+00 -8.230262e-01 -1.317802e+00 -4.291395e-01 7.173865e-03 -2.000641e-01 5.195409e-02 -1.033328e-01 1.905513e-01 5.352801e+00 -1.429296e-01 7.838897e-01 2.229806e-01 3.668775e-01 4.791147e-02 9.437288e-02 1.502225e-01 6.424224e-02 9.738791e-02 1.161575e-02 3.554885e-02 -9.668521e-03 -1.120874e+00
<VARIANCE> 39
 3.319481e+01 5.413403e+01 5.110533e+01 5.779180e+01 4.862719e+01 5.024171e+01 4.624042e+01 4.403474e+01 4.653502e+01 3.502278e+01 3.177147e+01 2.410722e+01 1.064188e+02 3.309467e+00 3.722491e+00 3.866165e+00 4.285207e+00 3.927303e+00 4.412843e+00 4.228154e+00 3.960587e+00 4.131891e+00 3.733049e+00 3.100992e+00 2.649333e+00 6.478389e+00 5.935738e-01 9.998623e-01 6.977708e-01 9.762951e-01 7.652442e-01 8.517891e-01 7.622128e-01 7.014788e-01 7.559207e-01 6.227782e-01 5.722761e-01 4.752983e-01 2.360842e+00
<GCONST> 1.358301e+02
<STATE> 3
<MEAN> 39
 -8.758027e+00 -1.975373e+00 -2.601674e+00 -1.660983e+00 2.031300e+00 -1.268793e+00 1.460717e+00 8.168000e-01 6.396823e-01 2.360596e+00 1.080927e+00 2.191271e+00 4.491485e+00 -4.607441e-01 1.235139e+00 5.101967e-01 -5.304250e-02 -2.314701e-01 -4.972695e-01 2.534786e-01 2.350874e-01 1.992142e-01 1.238983e-02 1.648688e-02 7.241628e-02 4.407106e-01 4.616195e-02 3.738815e-01 4.778880e-01 7.556127e-01 3.122761e-01 4.458618e-01 1.848459e-01 -3.646890e-02 3.311422e-02 -1.571408e-01 -1.060788e-01 -1.654260e-01 -1.728683e+00
<VARIANCE> 39
 4.342408e+01 4.095737e+01 6.407307e+01 5.597918e+01 5.344665e+01 5.690688e+01 5.319784e+01 5.216412e+01 5.469921e+01 4.540183e+01 3.892276e+01 2.957963e+01 3.109362e+01 3.392133e+00 3.688281e+00 3.033414e+00 3.355376e+00 3.466810e+00 3.991388e+00 3.547974e+00 3.521442e+00 3.356172e+00 3.148507e+00 2.789372e+00 2.433403e+00 4.645284e+00 7.155438e-01 8.078868e-01 7.542633e-01 7.797710e-01 7.624422e-01 8.622482e-01 8.157995e-01 7.835878e-01 8.195233e-01 7.618304e-01 6.619713e-01 5.577703e-01 7.869701e-01
<GCONST> 1.337529e+02
<STATE> 4
<MEAN> 39
 -9.112068e+00 -2.358425e+00 -6.809070e-01 -7.941780e-01 2.321300e+00 -2.689686e-01 2.601584e+00 2.156854e-01 8.179365e-01 9.421647e-01 8.232930e-02 1.261633e+00 2.638530e+00 6.085328e-01 -9.266669e-02 3.093528e-01 2.680928e-01 4.572743e-03 1.049612e-01 2.297849e-01 -1.434773e-02 -8.455672e-02 -2.911845e-01 -2.440378e-01 -1.946749e-01 -5.476229e-01 3.872037e-01 5.177680e-02 4.373195e-02 1.210619e-01 1.759169e-02 8.716340e-02 -5.123043e-02 -2.377265e-02 -7.106457e-02 -3.618417e-02 -3.796534e-02 -4.979879e-02 -9.656111e-02
<VARIANCE> 39
 3.720754e+01 3.594165e+01 5.471405e+01 4.654290e+01 5.026285e+01 5.381232e+01 5.083648e+01 5.115318e+01 4.896255e+01 4.212638e+01 3.834119e+01 3.047553e+01 2.328552e+01 1.970200e+00 2.245023e+00 2.435909e+00 2.804535e+00 2.994964e+00 3.368747e+00 3.319625e+00 3.473764e+00 3.457947e+00 3.372108e+00 3.098970e+00 2.590000e+00 1.273852e+00 3.784378e-01 4.764261e-01 4.033693e-01 4.778328e-01 5.368025e-01 6.173327e-01 6.250110e-01 6.577105e-01 6.537093e-01 6.442452e-01 5.857719e-01 4.994033e-01 2.894984e-01
<GCONST> 1.245868e+02
<STATE> 5
<MEAN> 39
 -4.777275e+00 -9.276145e-01 1.480728e+00 2.868760e+00 3.995762e+00 1.215101e+00 3.932189e+00 7.848414e-01 1.503050e-01 -7.890911e-03 -1.291310e+00 1.004511e-01 -1.085305e+00 3.016881e+00 1.225875e+00 9.077928e-01 5.977531e-01 -3.762503e-01 -5.123083e-02 -5.968264e-01 -2.967340e-01 -5.498028e-01 -5.707792e-01 -3.596861e-01 -4.046235e-01 4.692579e-01 5.503248e-01 -2.001589e-01 -3.162302e-01 -5.817419e-01 -6.050444e-01 -3.946685e-01 -5.415886e-01 -1.042330e-01 -5.087300e-02 2.598568e-02 2.254356e-01 9.258678e-02 7.343064e-01
<VARIANCE> 39
 4.091315e+01 3.709787e+01 6.306253e+01 4.800295e+01 5.446943e+01 6.191019e+01 5.747736e+01 5.693025e+01 4.849822e+01 4.488464e+01 3.767213e+01 3.363541e+01 3.146543e+01 4.307002e+00 2.758553e+00 3.380983e+00 3.960368e+00 4.241875e+00 4.794463e+00 4.879398e+00 4.382468e+00 4.491179e+00 3.801763e+00 3.614025e+00 2.976104e+00 2.308640e+00 4.715582e-01 5.915079e-01 5.400802e-01 6.144447e-01 6.890261e-01 7.551361e-01 8.007966e-01 7.685513e-01 7.643337e-01 7.543563e-01 6.319476e-01 5.482320e-01 4.061671e-01
<GCONST> 1.326772e+02
<STATE> 6
<MEAN> 39
 4.372773e+00 8.996372e-01 1.939799e+00 5.365965e-01 -5.530814e-01 -1.852163e+00 -1.581558e-01 -5.107809e-01 -1.380844e+00 -1.157347e+00 -1.046815e+00 -1.647655e-01 4.025542e+00 2.788000e+00 -5.573396e-01 -5.072290e-01 -1.393342e+00 -1.796621e+00 -1.030006e+00 -1.470525e+00 -1.056691e-01 -2.035978e-01 -1.076199e-01 3.665655e-01 -1.653736e-02 1.972813e+00 -7.280983e-01 -6.050918e-01 -3.714394e-01 -3.256167e-01 -4.943577e-02 2.986431e-02 8.265851e-02 1.645408e-01 2.110388e-01 1.955899e-01 1.842163e-01 9.939366e-02 4.155861e-02
<VARIANCE> 39
 6.295503e+01 3.777971e+01 7.622926e+01 5.925264e+01 6.121398e+01 6.367227e+01 6.391284e+01 5.613455e+01 4.806691e+01 3.838034e+01 3.617533e+01 3.140122e+01 3.851102e+01 3.824211e+00 3.584785e+00 3.889102e+00 4.325329e+00 4.881531e+00 4.844859e+00 5.938244e+00 4.755190e+00 4.676398e+00 4.405056e+00 3.760634e+00 3.029306e+00 2.452374e+00 4.375142e-01 4.258520e-01 4.669524e-01 5.785493e-01 6.053665e-01 6.232614e-01 6.965677e-01 6.266865e-01 6.149021e-01 5.644820e-01 4.950310e-01 4.597830e-01 3.324776e-01
<GCONST> 1.323945e+02
<TRANSP> 7
 0.000000e+00 1.000000e+00 0.000000e+00 0.000000e+00 0.000000e+00 0.000000e+00 0.000000e+00
 0.000000e+00 4.099244e-01 5.900757e-01 0.000000e+00 0.000000e+00 0.000000e+00 0.000000e+00
 0.000000e+00 0.000000e+00 3.606642e-01 6.393358e-01 0.000000e+00 0.000000e+00 0.000000e+00
 0.000000e+00 0.000000e+00 0.000000e+00 7.737740e-01 2.262260e-01 0.000000e+00 0.000000e+00
 0.000000e+00 0.000000e+00 0.000000e+00 0.000000e+00 4.481398e-01 5.518602e-01 0.000000e+00
 0.000000e+00 0.000000e+00 0.000000e+00 0.000000e+00 0.000000e+00 4.220154e-01 5.779846e-01
 0.000000e+00 0.000000e+00 0.000000e+00 0.000000e+00 0.000000e+00 0.000000e+00 0.000000e+00
<ENDHMM>
