~o
<STREAMINFO> 1 39
<VECSIZE> 39<NULLD><MFCC_D_A_Z_0><DIAGC>
~h "cpv"
<BEGINHMM>
<NUMSTATES> 7
<STATE> 2
<MEAN> 39
 -1.067098e+00 -2.350901e+00 -9.840445e-01 1.116002e+00 1.089749e+00 -6.788310e-01 -1.114619e+00 -9.286387e-01 5.233141e-01 1.983274e-01 -9.036677e-01 -1.979201e-02 -1.104457e+00 2.410004e-02 -6.804802e-01 -4.948058e-01 -1.015462e+00 -2.763484e-01 -6.906006e-01 -1.090726e-01 1.038210e-01 3.425615e-01 3.000256e-01 7.566516e-02 1.057112e-01 1.788824e+00 1.222491e-01 5.684468e-01 3.348123e-01 2.381015e-01 -1.072667e-01 -2.396629e-02 5.866821e-03 -1.740936e-02 -1.686877e-02 1.012930e-02 3.306576e-02 -5.768018e-02 -4.349577e-01
<VARIANCE> 39
 6.113080e+01 6.263847e+01 9.082189e+01 7.254800e+01 8.451768e+01 6.615367e+01 6.106964e+01 5.979796e+01 5.813509e+01 4.947197e+01 4.073660e+01 3.081269e+01 7.752150e+01 3.467088e+00 6.454714e+00 4.646004e+00 6.852545e+00 6.118754e+00 5.432259e+00 5.204607e+00 5.202993e+00 4.800639e+00 4.609078e+00 3.923833e+00 3.178627e+00 1.392298e+01 6.745957e-01 1.246104e+00 9.302734e-01 1.189020e+00 9.043403e-01 8.946231e-01 8.545744e-01 8.159054e-01 7.954222e-01 7.458685e-01 6.406559e-01 5.124010e-01 1.710803e+00
<GCONST> 1.448832e+02
<STATE> 3
<MEAN> 39
 -1.212696e-01 -5.019622e-01 -2.668716e+00 -9.947717e-01 -1.846077e+00 -2.988840e+00 -1.184643e+00 6.331689e-01 3.743580e+00 3.395959e+00 5.472878e-01 -5.603347e-01 -3.891030e+00 -3.089436e-01 6.669918e-01 3.425336e-01 3.283375e-01 1.788950e-01 2.796438e-01 4.244903e-01 3.659698e-02 1.478422e-03 4.849562e-03 2.255991e-02 -6.558239e-02 -6.047328e-01 2.001014e-01 8.607839e-02 2.393238e-01 1.813052e-01 6.521858e-02 2.050027e-01 -4.666580e-02 -8.670501e-02 -2.331169e-01 -2.043760e-01 -5.923217e-02 -2.278750e-02 -1.565068e-02
<VARIANCE> 39
 4.935799e+01 4.429860e+01 9.789498e+01 7.708727e+01 9.525706e+01 1.002267e+02 9.065160e+01 1.042982e+02 1.078585e+02 9.843410e+01 7.518386e+01 6.165500e+01 6.912205e+01 3.852338e+00 3.897597e+00 4.145209e+00 5.346260e+00 6.065387e+00 6.879728e+00 5.926150e+00 6.218617e+00 7.072847e+00 6.145029e+00 5.116825e+00 4.049109e+00 7.387118e+00 7.316212e-01 7.887694e-01 7.716166e-01 1.050099e+00 1.150310e+00 1.236052e+00 1.210999e+00 1.277434e+00 1.385271e+00 1.257384e+00 1.057005e+00 8.598757e-01 1.516190e+00
<GCONST> 1.514138e+02
<STATE> 4
<MEAN> 39
 -3.666611e+00 1.915341e+00 1.768360e+00 4.428848e+00 2.547874e+00 7.180381e-01 7.496552e-01 -7.761220e-01 1.092758e+00 5.225498e-01 -5.249329e-01 -2.188434e-01 -6.816555e+00 9.754055e-01 1.693646e-01 5.775514e-01 -1.515816e-01 -2.697888e-01 -4.407568e-02 -2.660053e-01 -2.106263e-01 -3.942989e-01 -2.817720e-01 -2.677221e-02 -6.195247e-02 9.276446e-01 5.819138e-01 -3.367411e-01 -1.717747e-01 -4.870979e-01 -4.894107e-01 -1.952048e-01 -2.460111e-01 4.718899e-02 -1.257768e-02 5.062465e-02 7.598710e-02 1.116765e-02 5.190662e-01
<VARIANCE> 39
 5.662431e+01 4.341381e+01 7.037468e+01 5.905627e+01 6.581501e+01 6.585403e+01 5.940831e+01 5.952864e+01 5.244076e+01 4.963866e+01 4.180648e+01 3.333221e+01 9.499123e+01 4.707415e+00 3.453017e+00 3.857797e+00 5.241933e+00 4.919193e+00 4.991131e+00 4.753483e+00 4.583503e+00 4.373096e+00 4.206105e+00 3.811918e+00 3.063398e+00 4.979093e+00 6.071348e-01 7.104212e-01 7.138742e-01 9.699768e-01 9.002264e-01 9.007350e-01 8.563977e-01 8.820968e-01 8.171540e-01 8.015071e-01 7.214156e-01 5.909917e-01 1.152042e+00
<GCONST> 1.402393e+02
<STATE> 5
<MEAN> 39
 2.872754e+00 6.745665e-01 2.436666e+00 8.734219e-01 -1.311779e+00 -1.589446e+00 -1.553011e+00 -1.813809e+00 -3.447573e-01 -2.196601e-01 -7.862090e-01 -6.170652e-01 1.374890e+00 2.169368e+00 -7.570049e-01 9.267057e-03 -1.386813e+00 -1.546047e+00 -6.331145e-01 -8.995408e-01 2.380856e-02 -2.734060e-01 -5.821013e-02 1.602091e-01 1.023053e-02 2.081919e+00 -7.792389e-02 -3.453450e-01 -3.018972e-01 -1.866769e-01 -8.881471e-02 4.128409e-02 -2.951539e-02 2.113902e-01 1.433357e-01 1.469536e-01 1.213075e-01 6.276109e-02 -8.018520e-02
<VARIANCE> 39
 3.861360e+01 4.812248e+01 8.765416e+01 6.867375e+01 7.110749e+01 6.793990e+01 5.942750e+01 5.543236e+01 5.000745e+01 4.616604e+01 3.833173e+01 3.002748e+01 3.888628e+01 4.411845e+00 3.817317e+00 4.569766e+00 5.803772e+00 5.257543e+00 5.262033e+00 5.455999e+00 5.065111e+00 4.940673e+00 4.773088e+00 4.247384e+00 3.297938e+00 4.848307e+00 5.177500e-01 6.762102e-01 5.757776e-01 8.069243e-01 7.542273e-01 7.743437e-01 7.894619e-01 7.356469e-01 6.750952e-01 6.551551e-01 5.886516e-01 4.879461e-01 7.425529e-01
<GCONST> 1.378051e+02
<STATE> 6
<MEAN> 39
 5.303646e+00 -1.742835e+00 -5.010733e-01 -3.347768e+00 -3.505314e+00 -5.208269e-01 -9.774330e-01 -6.513701e-01 -1.150636e-01 6.711608e-01 -1.557385e-01 -6.584977e-01 2.978931e+00 8.213413e-01 -5.932829e-01 -1.809369e-01 -7.395782e-01 -5.173394e-01 -1.315432e-02 -2.844990e-01 2.438030e-01 -1.143674e-02 -6.641414e-03 1.785046e-01 9.579555e-02 1.037117e+00 -2.237857e-01 -3.226543e-02 -6.643417e-02 8.555121e-02 1.547245e-01 7.881137e-02 6.050714e-02 6.227255e-02 4.678184e-02 2.875490e-02 3.065371e-03 1.865153e-02 -1.474072e-01
<VARIANCE> 39
 3.155215e+01 4.921395e+01 1.125292e+02 8.107890e+01 8.317774e+01 9.483655e+01 7.956821e+01 6.678918e+01 6.170623e+01 5.553268e+01 4.523112e+01 3.873137e+01 3.957652e+01 1.996620e+00 2.266243e+00 2.371451e+00 3.088828e+00 3.568895e+00 3.358098e+00 3.751201e+00 3.503586e+00 3.242233e+00 3.158294e+00 2.743561e+00 2.267741e+00 2.010708e+00 3.230644e-01 3.418005e-01 3.439970e-01 4.433351e-01 4.988630e-01 4.983389e-01 5.366589e-01 5.085582e-01 4.770692e-01 4.632076e-01 4.223094e-01 3.564946e-01 3.025720e-01
<GCONST> 1.270212e+02
<TRANSP> 7
 0.000000e+00 1.000000e+00 0.000000e+00 0.000000e+00 0.000000e+00 0.000000e+00 0.000000e+00
 0.000000e+00 3.810112e-01 6.189888e-01 0.000000e+00 0.000000e+00 0.000000e+00 0.000000e+00
 0.000000e+00 0.000000e+00 5.057015e-01 4.942984e-01 0.000000e+00 0.000000e+00 0.000000e+00
 0.000000e+00 0.000000e+00 0.000000e+00 4.847156e-01 5.152844e-01 0.000000e+00 0.000000e+00
 0.000000e+00 0.000000e+00 0.000000e+00 0.000000e+00 1.688385e-01 8.311615e-01 0.000000e+00
 0.000000e+00 0.000000e+00 0.000000e+00 0.000000e+00 0.000000e+00 5.997682e-01 4.002318e-01
 0.000000e+00 0.000000e+00 0.000000e+00 0.000000e+00 0.000000e+00 0.000000e+00 0.000000e+00
<ENDHMM>
