~o
<STREAMINFO> 1 39
<VECSIZE> 39<NULLD><MFCC_D_A_Z_0><DIAGC>
~h "cxv"
<BEGINHMM>
<NUMSTATES> 7
<STATE> 2
<MEAN> 39
 8.670828e+00 1.860639e+00 -2.169406e+00 -3.308216e+00 -2.084465e-01 -2.627788e-01 -4.259599e+00 -2.935786e+00 -1.989028e+00 7.194389e-02 1.139678e+00 9.511330e-02 2.833879e+00 9.295486e-01 -1.328864e-01 -4.838668e-01 -9.119881e-01 -3.920521e-01 3.219806e-02 -4.044745e-01 -2.412684e-02 -2.412153e-01 -2.515684e-02 3.034748e-01 1.920268e-01 4.937953e-01 -3.916949e-01 -1.688779e-01 6.069253e-02 1.321633e-01 4.018545e-02 5.346527e-02 1.726442e-01 1.413650e-01 9.844545e-02 -3.172298e-03 -2.513653e-02 -2.058363e-02 -9.099657e-02
<VARIANCE> 39
 3.492545e+01 5.476471e+01 1.015117e+02 9.105004e+01 6.312585e+01 8.365153e+01 8.016128e+01 7.334503e+01 6.639090e+01 5.325866e+01 4.461562e+01 3.755054e+01 3.568447e+01 2.700368e+00 2.761841e+00 3.064011e+00 4.017458e+00 4.242372e+00 4.335333e+00 4.880994e+00 4.260561e+00 3.943193e+00 3.817079e+00 3.217302e+00 2.659602e+00 2.142276e+00 4.463181e-01 3.621638e-01 4.203458e-01 5.597634e-01 5.742148e-01 5.852527e-01 6.689512e-01 6.298039e-01 6.185668e-01 5.909857e-01 5.305707e-01 4.414566e-01 2.017490e-01
<GCONST> 1.315890e+02
<STATE> 3
<MEAN> 39
 1.075389e+01 4.664067e+00 -4.856119e+00 -9.924458e+00 -2.738545e+00 4.190094e+00 -9.257069e-01 -3.512884e+00 -3.129666e+00 -1.034683e+00 1.877902e+00 7.745848e-01 1.662374e+00 6.867965e-02 -9.080628e-02 -1.476037e-01 -2.180617e-01 -5.361829e-02 1.076493e-01 -6.178646e-02 7.968487e-02 6.101719e-02 1.316578e-02 8.608767e-02 6.243826e-02 1.373772e-01 -7.255567e-02 -1.054588e-01 2.254615e-02 1.183138e-01 7.169160e-02 -4.240746e-02 -5.997670e-02 8.433200e-03 7.881348e-02 6.891867e-02 -1.667982e-02 -4.908289e-02 5.153051e-02
<VARIANCE> 39
 1.435536e+01 4.483897e+01 5.112362e+01 8.918527e+01 7.299418e+01 6.621487e+01 6.939026e+01 6.510007e+01 5.672585e+01 5.028928e+01 4.426806e+01 3.953281e+01 3.200212e+01 3.317247e-01 1.059678e+00 9.986526e-01 1.653587e+00 1.743270e+00 1.827147e+00 2.088399e+00 2.013252e+00 2.091548e+00 2.090169e+00 1.941561e+00 1.657838e+00 5.731543e-01 6.534723e-02 1.174456e-01 1.406955e-01 2.234168e-01 2.476306e-01 2.780267e-01 3.205218e-01 3.193533e-01 3.355471e-01 3.279824e-01 3.153918e-01 2.737212e-01 5.644589e-02
<GCONST> 1.056802e+02
<STATE> 4
<MEAN> 39
 9.089372e+00 -2.122102e+00 -2.007185e+00 -2.286650e+00 -9.834957e-01 -2.459005e+00 -5.978087e+00 8.049278e-01 -9.222714e-01 -8.545763e-01 1.212726e+00 3.960061e-01 5.418837e+00 -2.426978e-02 -2.537966e-01 3.587660e-02 9.128997e-02 -8.185720e-02 -1.684379e-01 -1.513335e-01 8.862803e-02 1.325600e-01 9.740897e-02 1.020858e-02 -5.148166e-02 1.842212e-01 -4.699355e-02 -5.365566e-03 6.440938e-02 4.970674e-02 -4.084408e-02 -4.450437e-02 5.810552e-02 2.184647e-02 1.043812e-02 2.017379e-03 -2.482350e-02 -1.031841e-02 -8.076097e-03
<VARIANCE> 39
 3.680547e+01 5.840063e+01 1.790391e+02 7.783011e+01 7.601321e+01 9.697063e+01 8.853117e+01 9.065025e+01 7.424743e+01 5.359471e+01 3.837241e+01 3.574405e+01 2.568206e+01 2.758469e-01 7.740257e-01 9.659666e-01 1.026791e+00 1.351359e+00 1.634919e+00 1.815448e+00 1.706537e+00 1.710270e+00 1.554946e+00 1.372342e+00 1.170115e+00 4.106489e-01 4.163405e-02 7.992646e-02 1.086365e-01 1.328241e-01 1.732759e-01 2.038914e-01 2.211919e-01 2.527816e-01 2.465313e-01 2.242910e-01 2.121162e-01 1.749701e-01 3.722222e-02
<GCONST> 1.008287e+02
<STATE> 5
<MEAN> 39
 1.065930e+01 -3.516868e+00 -6.112028e+00 -2.640845e+00 2.665245e-01 -3.028635e+00 -7.845498e+00 1.167632e+00 1.961625e+00 2.854904e-01 1.216323e+00 3.436431e-01 6.399232e+00 -3.618135e-01 -4.685655e-01 7.226760e-01 4.449197e-01 -5.282754e-01 -5.721853e-01 2.187490e-01 5.965635e-01 1.090815e-01 -1.790097e-01 -2.066708e-01 -7.987119e-02 2.925422e-01 -8.909885e-02 8.290907e-02 1.490002e-01 -2.301145e-03 -7.790823e-02 5.898401e-02 2.175970e-01 -4.282982e-02 -1.366635e-01 -7.451401e-02 -1.144179e-02 2.509808e-02 -6.790745e-02
<VARIANCE> 39
 1.765061e+01 4.131437e+01 8.328071e+01 9.483737e+01 7.019274e+01 1.091589e+02 1.041070e+02 9.568070e+01 8.233003e+01 6.804782e+01 5.083754e+01 4.313020e+01 2.133523e+01 3.702700e-01 1.241121e+00 1.691078e+00 1.852901e+00 2.393679e+00 2.913403e+00 3.364610e+00 3.213675e+00 3.364835e+00 2.889013e+00 2.528276e+00 2.175545e+00 7.206889e-01 5.514817e-02 1.106549e-01 1.497798e-01 2.210349e-01 2.706600e-01 3.476802e-01 3.919453e-01 4.335859e-01 4.322811e-01 4.272965e-01 3.595498e-01 3.121687e-01 5.522828e-02
<GCONST> 1.137022e+02
<STATE> 6
<MEAN> 39
 7.840354e+00 -3.826213e-01 -2.603237e+00 -3.311367e+00 -6.737339e-01 -1.366877e+00 -3.957795e+00 -4.129094e-01 -5.899785e-01 -1.501942e-01 8.968975e-01 3.432450e-01 3.932412e+00 -8.973188e-01 6.123200e-02 7.193009e-01 7.609024e-01 5.210953e-02 -1.145179e-01 3.929569e-01 -6.467284e-03 4.482823e-02 3.481330e-02 -2.200979e-01 -1.616346e-01 -4.007570e-01 -1.231954e-01 1.011590e-02 2.097808e-02 -2.756529e-03 1.973724e-02 9.926091e-02 4.570401e-02 3.894481e-03 3.608836e-02 -1.730699e-03 -3.268569e-02 -4.875214e-02 -7.641239e-02
<VARIANCE> 39
 2.896992e+01 5.125767e+01 8.661462e+01 1.091417e+02 8.224261e+01 1.136902e+02 9.490063e+01 8.330337e+01 7.299917e+01 6.159976e+01 5.031060e+01 4.111237e+01 3.945654e+01 2.310943e+00 3.051104e+00 3.014237e+00 4.289762e+00 3.994091e+00 4.443766e+00 4.561775e+00 4.618933e+00 4.510972e+00 3.980640e+00 3.253954e+00 2.815432e+00 3.004094e+00 2.496436e-01 2.971865e-01 3.269313e-01 5.115659e-01 5.126090e-01 6.115987e-01 6.405510e-01 6.336088e-01 6.162054e-01 5.819058e-01 5.161205e-01 4.450574e-01 2.026987e-01
<GCONST> 1.320699e+02
<TRANSP> 7
 0.000000e+00 1.000000e+00 0.000000e+00 0.000000e+00 0.000000e+00 0.000000e+00 0.000000e+00
 0.000000e+00 5.791137e-01 4.208863e-01 0.000000e+00 0.000000e+00 0.000000e+00 0.000000e+00
 0.000000e+00 0.000000e+00 7.391480e-01 2.608521e-01 0.000000e+00 0.000000e+00 0.000000e+00
 0.000000e+00 0.000000e+00 0.000000e+00 7.009220e-01 2.990780e-01 0.000000e+00 0.000000e+00
 0.000000e+00 0.000000e+00 0.000000e+00 0.000000e+00 5.305701e-01 4.694299e-01 0.000000e+00
 0.000000e+00 0.000000e+00 0.000000e+00 0.000000e+00 0.000000e+00 5.251871e-01 4.748130e-01
 0.000000e+00 0.000000e+00 0.000000e+00 0.000000e+00 0.000000e+00 0.000000e+00 0.000000e+00
<ENDHMM>
