~o
<STREAMINFO> 1 39
<VECSIZE> 39<NULLD><MFCC_D_A_Z_0><DIAGC>
~h "plu"
<BEGINHMM>
<NUMSTATES> 7
<STATE> 2
<MEAN> 39
 -4.829066e+00 1.531753e+00 -7.626638e-01 4.448236e+00 3.845720e+00 1.812109e+00 3.067407e+00 6.696264e-01 7.810299e-01 1.853839e-02 -6.877851e-01 9.174225e-01 -1.266164e+01 -2.231933e-01 -1.617700e-01 -1.730629e-01 1.231885e-01 1.321744e-01 1.803519e-01 1.902996e-01 4.937012e-02 -1.042521e-02 -9.087729e-03 2.201126e-02 2.586551e-02 -4.189413e-01 -3.048512e-02 -4.844426e-03 -1.607870e-02 -3.987274e-02 -2.002991e-02 -1.645640e-02 -9.034343e-03 4.829340e-03 4.763809e-03 5.572868e-03 1.722732e-02 1.498414e-02 4.429112e-02
<VARIANCE> 39
 3.725350e+01 3.522798e+01 5.023861e+01 5.459074e+01 5.760881e+01 5.841256e+01 5.445206e+01 5.560246e+01 5.354869e+01 5.006962e+01 4.346926e+01 3.196036e+01 4.621843e+01 1.499794e+00 1.677082e+00 2.057648e+00 2.755393e+00 3.107894e+00 3.482701e+00 3.536963e+00 3.582879e+00 3.536532e+00 3.405569e+00 2.989220e+00 2.544637e+00 1.434325e+00 2.215974e-01 2.717617e-01 3.425387e-01 4.748931e-01 5.443251e-01 6.146061e-01 6.334045e-01 6.481252e-01 6.382153e-01 6.128039e-01 5.525197e-01 4.646416e-01 2.067050e-01
<GCONST> 1.238450e+02
<STATE> 3
<MEAN> 39
 -6.081609e+00 -1.393394e+00 -3.665253e+00 2.960099e+00 3.832992e+00 9.458958e-01 3.621536e+00 1.469345e+00 1.162211e+00 -1.289965e+00 -7.281360e-01 2.057137e+00 -1.233451e+01 -8.953019e-02 1.604332e-01 -2.259844e-02 5.243238e-02 1.546291e-02 8.307146e-02 2.136849e-02 -3.734102e-02 2.650086e-02 7.521021e-02 2.404371e-02 -1.125228e-03 -2.661499e-01 -6.955164e-03 3.035087e-02 3.645274e-02 2.087092e-02 1.433078e-02 1.050030e-02 -2.508408e-03 -6.832170e-03 5.228964e-03 1.973563e-02 8.226153e-03 -1.004784e-02 2.124483e-03
<VARIANCE> 39
 1.741125e+01 2.858965e+01 3.078713e+01 3.315820e+01 4.083574e+01 4.376601e+01 4.354380e+01 4.492583e+01 4.194418e+01 4.576204e+01 4.198937e+01 3.139175e+01 2.840473e+01 3.486171e-01 7.090793e-01 1.083709e+00 1.494180e+00 1.890039e+00 2.319593e+00 2.580090e+00 2.769738e+00 2.857598e+00 2.845974e+00 2.585291e+00 2.225672e+00 1.843566e-01 5.578358e-02 1.172626e-01 1.971642e-01 2.806281e-01 3.611194e-01 4.408388e-01 4.990669e-01 5.398444e-01 5.599771e-01 5.529061e-01 5.117933e-01 4.363557e-01 2.079759e-02
<GCONST> 1.050395e+02
<STATE> 4
<MEAN> 39
 -9.916080e+00 4.015231e+00 -6.366352e-01 7.097554e+00 5.555068e+00 4.879232e+00 4.293392e+00 1.127904e+00 2.258773e+00 1.734002e+00 1.408405e+00 1.648392e+00 -2.103859e+01 -9.146985e-02 6.825391e-02 1.080759e-01 9.286295e-02 6.819802e-02 7.006695e-02 5.299033e-03 -1.449978e-02 7.942061e-03 4.582157e-02 1.991360e-02 -1.797630e-02 -8.659996e-02 2.425145e-02 -1.620977e-02 -1.762603e-02 -2.534019e-02 -1.753385e-02 -1.936711e-02 -8.381146e-03 1.760791e-03 -1.033928e-02 -2.205651e-02 -1.362621e-02 -2.566176e-03 2.997648e-02
<VARIANCE> 39
 1.048046e+01 1.336155e+01 1.823894e+01 2.505049e+01 2.625098e+01 3.469126e+01 3.492859e+01 3.451243e+01 3.510390e+01 3.150443e+01 3.112141e+01 2.488690e+01 1.048973e+01 2.617087e-01 5.303783e-01 8.687046e-01 1.297819e+00 1.639353e+00 2.022996e+00 2.269228e+00 2.500520e+00 2.532535e+00 2.542372e+00 2.291832e+00 1.975893e+00 1.157651e-01 4.781044e-02 1.006575e-01 1.656888e-01 2.543405e-01 3.235759e-01 4.040937e-01 4.611275e-01 5.090171e-01 5.136604e-01 5.154250e-01 4.602582e-01 3.992490e-01 1.934038e-02
<GCONST> 9.600433e+01
<STATE> 5
<MEAN> 39
 -9.102890e+00 3.115678e+00 -1.148767e+00 5.981995e+00 5.340244e+00 4.432185e+00 4.007300e+00 1.223166e+00 1.996352e+00 1.722003e+00 7.809549e-01 1.228860e+00 -1.930158e+01 6.501295e-02 5.183133e-02 7.335150e-02 -3.332103e-02 -1.235652e-02 -2.916224e-03 -1.827869e-02 -4.530928e-02 -7.975418e-02 -3.576401e-02 -3.921334e-02 -7.513559e-02 1.411733e-01 6.474998e-02 -8.133920e-03 2.190531e-02 -3.732657e-02 -3.297772e-02 -3.402726e-02 -3.093041e-02 -3.312093e-02 -3.637027e-02 -4.034790e-02 -1.697646e-02 -6.720147e-03 1.205017e-01
<VARIANCE> 39
 1.482155e+01 2.037053e+01 2.778834e+01 3.356117e+01 3.308351e+01 3.734684e+01 4.007972e+01 3.854695e+01 3.795971e+01 3.557811e+01 3.428595e+01 2.740563e+01 1.762914e+01 8.439814e-01 1.294041e+00 1.663498e+00 2.115806e+00 2.416737e+00 2.721972e+00 2.843704e+00 3.020741e+00 2.997332e+00 3.004097e+00 2.667709e+00 2.292225e+00 7.267334e-01 1.757079e-01 2.497307e-01 3.175787e-01 4.150478e-01 4.782548e-01 5.329854e-01 5.660709e-01 5.996760e-01 5.858390e-01 5.892662e-01 5.249807e-01 4.453725e-01 1.840382e-01
<GCONST> 1.128714e+02
<STATE> 6
<MEAN> 39
 -6.178097e+00 3.229927e+00 5.740684e-01 4.255445e+00 3.463089e+00 3.124296e+00 2.878791e+00 -3.475783e-01 3.291066e-01 3.803949e-01 -5.576957e-02 4.910830e-01 -1.357741e+01 6.668900e-01 -3.438126e-01 1.465624e-01 -8.602819e-01 -5.570061e-01 -4.993601e-01 -3.577811e-01 -2.064866e-01 -2.532467e-01 -1.943414e-01 -1.094483e-01 -8.308166e-02 2.133106e+00 2.365338e-02 -8.259197e-02 -4.617264e-02 -1.339199e-01 -9.596433e-02 -6.953110e-02 -2.522678e-02 4.584176e-02 3.443093e-02 3.739993e-02 2.318386e-02 2.015175e-02 2.682945e-01
<VARIANCE> 39
 4.712542e+01 4.977971e+01 5.045907e+01 5.338433e+01 5.273819e+01 4.798235e+01 4.840293e+01 4.848001e+01 4.499200e+01 3.940099e+01 3.631378e+01 3.044291e+01 7.026546e+01 3.681682e+00 3.316056e+00 3.187727e+00 4.438805e+00 4.175448e+00 3.988846e+00 3.972024e+00 3.910866e+00 3.758802e+00 3.555082e+00 3.138782e+00 2.582424e+00 6.760547e+00 5.067323e-01 5.780233e-01 4.988090e-01 7.678631e-01 7.118952e-01 6.915895e-01 6.824558e-01 6.699890e-01 6.404521e-01 6.230502e-01 5.429779e-01 4.504345e-01 1.022962e+00
<GCONST> 1.329945e+02
<TRANSP> 7
 0.000000e+00 1.000000e+00 0.000000e+00 0.000000e+00 0.000000e+00 0.000000e+00 0.000000e+00
 0.000000e+00 8.413098e-01 1.586902e-01 0.000000e+00 0.000000e+00 0.000000e+00 0.000000e+00
 0.000000e+00 0.000000e+00 9.155470e-01 8.445299e-02 0.000000e+00 0.000000e+00 0.000000e+00
 0.000000e+00 0.000000e+00 0.000000e+00 9.033774e-01 9.662262e-02 0.000000e+00 0.000000e+00
 0.000000e+00 0.000000e+00 0.000000e+00 0.000000e+00 8.217934e-01 1.782066e-01 0.000000e+00
 0.000000e+00 0.000000e+00 0.000000e+00 0.000000e+00 0.000000e+00 7.440854e-01 2.559146e-01
 0.000000e+00 0.000000e+00 0.000000e+00 0.000000e+00 0.000000e+00 0.000000e+00 0.000000e+00
<ENDHMM>
