~o
<STREAMINFO> 1 39
<VECSIZE> 39<NULLD><MFCC_D_A_Z_0><DIAGC>
~h "psu"
<BEGINHMM>
<NUMSTATES> 7
<STATE> 2
<MEAN> 39
 -1.387970e+00 4.658250e+00 3.050142e+00 5.939322e+00 1.840201e+00 -1.338814e+00 -3.262910e-01 -1.352150e+00 -1.770099e+00 -3.938729e-01 -8.103968e-01 -4.497145e-01 -9.521401e+00 -1.069673e+00 1.166330e+00 -9.418310e-03 1.238772e+00 1.187905e+00 1.015354e+00 3.770603e-01 -5.156011e-01 -6.859012e-02 -2.170644e-01 -1.815341e-01 -1.439371e-01 -3.026377e+00 -5.344592e-02 -2.423545e-01 -4.962238e-02 -2.395853e-01 -1.292257e-01 3.844524e-02 -1.450258e-02 7.740944e-02 6.037762e-02 3.149531e-02 6.438077e-02 3.611933e-02 3.844706e-01
<VARIANCE> 39
 6.179290e+01 4.471759e+01 6.119506e+01 5.495046e+01 7.018500e+01 6.762566e+01 6.548656e+01 6.833569e+01 6.826268e+01 5.474768e+01 4.763919e+01 3.713183e+01 4.104078e+01 4.043630e+00 4.490529e+00 4.348577e+00 5.041145e+00 5.730254e+00 5.688363e+00 5.582836e+00 5.640985e+00 5.637325e+00 4.795965e+00 4.112586e+00 3.321909e+00 4.271445e+00 4.562133e-01 7.157870e-01 6.484365e-01 7.673440e-01 8.846877e-01 8.955517e-01 9.198465e-01 9.112265e-01 9.148828e-01 8.049967e-01 6.989596e-01 5.825911e-01 5.987070e-01
<GCONST> 1.403525e+02
<STATE> 3
<MEAN> 39
 -2.380834e-01 1.050256e+01 5.572502e+00 9.757438e+00 4.007823e+00 7.079458e-01 -6.157227e-01 -4.848278e+00 -3.686556e+00 -2.313454e+00 -1.967726e+00 -1.479060e+00 -1.480842e+01 -9.669970e-01 5.340650e-02 -1.799134e-01 2.647542e-01 5.722088e-01 6.475934e-01 2.196809e-01 1.634577e-02 1.990692e-01 2.009033e-02 4.040551e-02 4.776365e-02 -1.166251e+00 -1.991998e-02 -5.158095e-01 -1.890833e-01 -3.585737e-01 -1.746942e-01 -6.698535e-02 6.471764e-02 2.452826e-01 1.692570e-01 1.673151e-01 1.352263e-01 9.575458e-02 5.885398e-01
<VARIANCE> 39
 4.132138e+01 2.749405e+01 3.449505e+01 3.626564e+01 4.323439e+01 4.373264e+01 4.714404e+01 4.753090e+01 4.764904e+01 4.117024e+01 3.752262e+01 2.943241e+01 2.455731e+01 1.948464e+00 2.358036e+00 2.436798e+00 2.476748e+00 2.912724e+00 3.154896e+00 3.284889e+00 3.489177e+00 3.379059e+00 3.125942e+00 2.735227e+00 2.278450e+00 1.528556e+00 2.324439e-01 4.402291e-01 3.874059e-01 5.116323e-01 5.433615e-01 5.406836e-01 5.974323e-01 6.289726e-01 6.126067e-01 6.056765e-01 5.042855e-01 4.222367e-01 4.176076e-01
<GCONST> 1.219709e+02
<STATE> 4
<MEAN> 39
 -9.142065e+00 4.335507e+00 6.035253e-01 7.584895e+00 5.721247e+00 4.543314e+00 2.960797e+00 6.070644e-02 1.271003e+00 1.446775e+00 1.004308e+00 7.667983e-01 -1.947251e+01 -3.640711e-01 -3.873849e-01 -2.903224e-01 -1.380667e-01 9.635411e-02 3.102599e-01 2.963606e-01 3.013975e-01 3.620357e-01 2.800131e-01 2.442929e-01 1.667650e-01 -9.275825e-02 2.177959e-01 -1.295739e-01 4.328690e-02 -1.953299e-01 -1.329989e-01 -2.308424e-01 -1.343648e-01 -5.884873e-02 -1.052014e-01 -6.801920e-02 -6.539194e-02 -2.135104e-02 7.148173e-01
<VARIANCE> 39
 2.390441e+01 2.230041e+01 2.711616e+01 3.166649e+01 3.112628e+01 3.665300e+01 4.014826e+01 4.016705e+01 4.014736e+01 3.599196e+01 3.296339e+01 2.655593e+01 2.386524e+01 1.395199e+00 1.653540e+00 1.824174e+00 2.062177e+00 2.380912e+00 2.803929e+00 3.018155e+00 3.276934e+00 3.343914e+00 3.060255e+00 2.675024e+00 2.275846e+00 9.791698e-01 2.719196e-01 4.817390e-01 4.275971e-01 5.483745e-01 5.315480e-01 6.092408e-01 6.200775e-01 6.550735e-01 6.528062e-01 6.041806e-01 5.321751e-01 4.616325e-01 6.727727e-01
<GCONST> 1.185793e+02
<STATE> 5
<MEAN> 39
 -7.344530e+00 5.541915e+00 2.121322e+00 8.387553e+00 5.923792e+00 4.193336e+00 2.298920e+00 -9.992526e-01 3.567503e-01 5.538307e-01 2.694657e-01 2.214075e-01 -1.738564e+01 2.107620e-01 -2.187661e+00 -7.280673e-01 -1.780665e+00 -5.434081e-01 -6.178911e-01 -2.168109e-01 1.205069e-01 2.816364e-02 3.406588e-02 2.344147e-03 1.481044e-01 4.113792e+00 2.760717e-01 -3.835001e-01 -1.699976e-01 -6.477001e-01 -4.321250e-01 -4.948909e-01 -2.177541e-01 -3.005514e-02 -9.684324e-02 -5.799837e-03 -1.973571e-02 3.411749e-02 1.487975e+00
<VARIANCE> 39
 4.316826e+01 3.381486e+01 3.676423e+01 3.694844e+01 3.522538e+01 4.215249e+01 4.592073e+01 4.701422e+01 4.654053e+01 4.030378e+01 3.662228e+01 2.798746e+01 3.615008e+01 4.363128e+00 6.006753e+00 4.352650e+00 4.689855e+00 4.166682e+00 4.461446e+00 4.182809e+00 4.137460e+00 4.271525e+00 3.528685e+00 3.212452e+00 2.488522e+00 6.560421e+00 4.530636e-01 6.065723e-01 5.909647e-01 6.646178e-01 6.530846e-01 6.966888e-01 7.291487e-01 7.284658e-01 7.219137e-01 6.837652e-01 6.025053e-01 4.863076e-01 7.520388e-01
<GCONST> 1.320782e+02
<STATE> 6
<MEAN> 39
 -5.850108e+00 -1.235681e+00 -6.209763e-01 1.881240e+00 3.227360e+00 1.093378e+00 1.104990e+00 -8.888388e-01 -3.276893e-01 4.895846e-01 -5.557631e-02 5.736060e-01 -4.019863e+00 2.803183e-01 -1.201753e+00 -4.937667e-01 -1.731749e+00 -8.450247e-01 -9.308158e-01 -3.493387e-01 8.845212e-02 -1.892101e-02 7.377318e-02 8.529661e-02 1.804401e-01 4.179642e+00 3.953322e-02 5.813754e-01 2.615340e-01 2.540632e-01 -4.398106e-02 -1.387278e-02 -4.554025e-03 1.741609e-03 1.864416e-03 1.728035e-02 1.273669e-02 -2.270630e-02 -4.658821e-01
<VARIANCE> 39
 5.993127e+01 6.202959e+01 5.680282e+01 5.675002e+01 5.254352e+01 5.221762e+01 4.971163e+01 4.872822e+01 4.654173e+01 3.728064e+01 3.375802e+01 2.572496e+01 7.888912e+01 5.050294e+00 5.250146e+00 4.647868e+00 5.527393e+00 4.924664e+00 5.070334e+00 4.658330e+00 4.524958e+00 4.530689e+00 4.040389e+00 3.479489e+00 2.809520e+00 8.570354e+00 8.107682e-01 1.128612e+00 8.046381e-01 9.574658e-01 8.440403e-01 8.876025e-01 8.248149e-01 7.505018e-01 7.530938e-01 6.790676e-01 6.044902e-01 4.858477e-01 1.477769e+00
<GCONST> 1.397812e+02
<TRANSP> 7
 0.000000e+00 1.000000e+00 0.000000e+00 0.000000e+00 0.000000e+00 0.000000e+00 0.000000e+00
 0.000000e+00 5.654127e-01 4.345873e-01 0.000000e+00 0.000000e+00 0.000000e+00 0.000000e+00
 0.000000e+00 0.000000e+00 6.577644e-01 3.422356e-01 0.000000e+00 0.000000e+00 0.000000e+00
 0.000000e+00 0.000000e+00 0.000000e+00 7.361112e-01 2.638889e-01 0.000000e+00 0.000000e+00
 0.000000e+00 0.000000e+00 0.000000e+00 0.000000e+00 3.568725e-01 6.431275e-01 0.000000e+00
 0.000000e+00 0.000000e+00 0.000000e+00 0.000000e+00 0.000000e+00 4.738786e-01 5.261214e-01
 0.000000e+00 0.000000e+00 0.000000e+00 0.000000e+00 0.000000e+00 0.000000e+00 0.000000e+00
<ENDHMM>
