~o
<STREAMINFO> 1 39
<VECSIZE> 39<NULLD><MFCC_D_A_Z_0><DIAGC>
~h "vdv"
<BEGINHMM>
<NUMSTATES> 7
<STATE> 2
<MEAN> 39
 7.365795e+00 -3.315374e+00 -2.790640e+00 -5.211485e+00 -2.103272e+00 4.432758e-01 -2.540360e+00 -5.751217e-01 2.148941e+00 1.685840e+00 -2.778544e-01 -1.735190e+00 7.794523e+00 7.288972e-01 -1.131426e+00 -2.968199e-01 -9.246849e-01 -5.234487e-01 9.302049e-02 -3.544396e-01 4.473855e-01 4.989642e-01 1.622861e-01 -3.329070e-02 -2.218674e-01 1.040198e+00 -3.961399e-01 1.803427e-01 8.241083e-02 2.309953e-01 1.739948e-01 5.301881e-02 2.405548e-01 -3.994777e-02 -1.380270e-01 -7.192190e-02 1.692433e-03 5.337644e-02 -3.281758e-01
<VARIANCE> 39
 2.059684e+01 3.908899e+01 5.867918e+01 6.595428e+01 6.257574e+01 8.254021e+01 7.292847e+01 6.539404e+01 5.987361e+01 6.101707e+01 5.277516e+01 4.264622e+01 2.604555e+01 2.605018e+00 2.287921e+00 2.263963e+00 3.603486e+00 3.784256e+00 3.953217e+00 4.247554e+00 4.077441e+00 3.913984e+00 3.757236e+00 3.293509e+00 2.909389e+00 1.699780e+00 3.720426e-01 3.968976e-01 3.389105e-01 5.273309e-01 5.435989e-01 5.702196e-01 6.276768e-01 6.435438e-01 6.043477e-01 6.039265e-01 5.123808e-01 4.411766e-01 2.773705e-01
<GCONST> 1.282611e+02
<STATE> 3
<MEAN> 39
 8.185153e+00 -8.128022e+00 -6.762590e+00 -6.759132e+00 9.803778e-01 4.531580e+00 -6.580447e-01 -2.954696e-01 3.430344e+00 1.638599e-01 -1.252522e+00 -3.187664e+00 1.037967e+01 -7.690835e-02 -1.385282e-01 2.003325e-01 1.770514e-01 -1.102281e-01 -3.089149e-01 5.125950e-02 2.610920e-01 7.153203e-02 -1.219075e-01 -1.346255e-01 4.134937e-02 5.271284e-02 -1.871497e-02 9.045913e-02 5.513238e-02 3.485248e-02 -4.654112e-02 -4.849813e-02 1.821565e-02 -4.929496e-03 -6.446820e-02 -6.315387e-03 3.825429e-02 4.476530e-02 -6.467143e-02
<VARIANCE> 39
 1.343087e+01 3.954407e+01 3.242408e+01 5.519485e+01 5.498947e+01 6.881715e+01 6.242581e+01 5.857513e+01 5.384748e+01 5.666521e+01 5.194618e+01 4.760394e+01 2.346119e+01 2.349402e-01 6.393090e-01 7.535115e-01 1.165548e+00 1.318999e+00 1.696747e+00 1.609118e+00 1.724859e+00 1.640447e+00 1.661397e+00 1.504421e+00 1.447891e+00 2.950331e-01 3.946055e-02 8.209171e-02 8.808064e-02 1.426408e-01 1.660511e-01 1.965664e-01 2.248381e-01 2.329175e-01 2.380951e-01 2.371202e-01 2.160086e-01 2.021862e-01 4.339180e-02
<GCONST> 9.561420e+01
<STATE> 4
<MEAN> 39
 4.926845e+00 -5.791340e+00 5.628253e+00 -4.652018e+00 -1.023005e+01 -4.223138e+00 8.883312e-01 3.238680e+00 -7.152714e-01 -3.171868e-01 5.815591e-01 1.752653e-01 1.076155e+01 -1.156926e-01 4.021118e-01 5.343351e-01 1.663641e-02 -3.827534e-01 -3.158412e-02 3.163221e-02 -2.651744e-01 -3.997363e-01 1.424081e-01 2.308319e-01 4.293794e-02 -2.489798e-01 1.232051e-02 7.551256e-02 -3.610568e-02 7.056116e-02 9.679100e-02 3.158079e-02 -4.974194e-02 -7.366248e-02 8.802263e-04 2.133831e-02 -1.329723e-02 -2.829208e-02 -9.799024e-02
<VARIANCE> 39
 1.251082e+01 2.886207e+01 5.010085e+01 4.609227e+01 5.906953e+01 6.251890e+01 5.760561e+01 5.769584e+01 4.842137e+01 4.661620e+01 4.201868e+01 2.695033e+01 2.067547e+01 2.343827e-01 5.961443e-01 7.870720e-01 9.065533e-01 1.316630e+00 1.394493e+00 1.539777e+00 1.588225e+00 1.582171e+00 1.425321e+00 1.288308e+00 1.071157e+00 3.098896e-01 4.008941e-02 8.672106e-02 9.061097e-02 1.321236e-01 1.640261e-01 1.944838e-01 2.263449e-01 2.445997e-01 2.214395e-01 2.087427e-01 1.925287e-01 1.617062e-01 5.001993e-02
<GCONST> 9.261199e+01
<STATE> 5
<MEAN> 39
 6.532638e+00 -2.898942e+00 2.042026e+00 -3.560881e+00 -5.748615e+00 -2.622428e+00 -1.933876e+00 1.125395e+00 3.020190e-01 1.572454e+00 3.057653e-01 -1.064290e+00 6.533517e+00 -7.672561e-02 9.241986e-01 3.500073e-01 7.240700e-01 2.095425e-01 -1.870845e-01 3.580897e-04 -4.968366e-01 -5.116696e-01 3.160227e-02 1.689423e-01 1.087012e-01 -1.037467e+00 -1.316518e-01 2.376371e-01 -3.421516e-02 2.331877e-01 2.523236e-01 6.230684e-02 1.282741e-01 -1.785520e-01 -5.563390e-02 -4.189432e-02 -4.696267e-02 -2.423614e-02 -2.974719e-01
<VARIANCE> 39
 1.762057e+01 3.282602e+01 8.329535e+01 5.640958e+01 7.648804e+01 8.119551e+01 6.906725e+01 7.458246e+01 7.396336e+01 6.441188e+01 5.511779e+01 4.165185e+01 2.460794e+01 6.710833e-01 1.403096e+00 1.965721e+00 2.348209e+00 2.839526e+00 3.033601e+00 3.361188e+00 3.322368e+00 3.612535e+00 3.117803e+00 2.794999e+00 2.294257e+00 9.353222e-01 1.294730e-01 2.270539e-01 2.960205e-01 3.677790e-01 4.283155e-01 4.774742e-01 5.219019e-01 5.525520e-01 5.571221e-01 5.089631e-01 4.684553e-01 3.732515e-01 1.801347e-01
<GCONST> 1.201396e+02
<STATE> 6
<MEAN> 39
 3.502935e+00 2.476853e+00 4.099119e+00 1.049019e+00 -2.928455e+00 -3.117612e+00 -6.486101e-01 -1.562416e+00 -1.647907e+00 1.004962e+00 2.476197e-01 -5.928288e-01 8.216708e-01 -1.421252e+00 1.569562e+00 -5.890258e-02 1.491299e+00 1.515084e+00 5.204989e-01 6.046828e-01 -5.926327e-01 -2.924444e-01 -3.808884e-01 -1.456668e-01 -6.023211e-02 -2.154738e+00 -2.899921e-01 -1.149651e-01 -1.274314e-01 -7.462963e-02 1.181562e-01 1.626027e-01 1.889977e-02 8.681490e-02 7.572535e-02 -4.088261e-02 -4.972074e-02 -1.623622e-02 -6.885994e-04
<VARIANCE> 39
 3.880389e+01 4.095658e+01 6.934288e+01 6.216690e+01 7.662751e+01 7.330593e+01 6.833796e+01 6.517319e+01 7.153188e+01 5.691956e+01 4.632849e+01 3.833561e+01 4.361890e+01 3.551849e+00 3.243776e+00 3.673496e+00 4.600819e+00 4.992717e+00 5.021827e+00 4.951380e+00 5.222065e+00 5.272604e+00 4.738086e+00 4.050620e+00 3.196277e+00 4.318688e+00 3.609763e-01 4.980280e-01 4.538116e-01 5.979064e-01 7.520596e-01 7.224200e-01 7.193965e-01 7.251962e-01 7.811671e-01 7.123300e-01 5.918906e-01 4.919922e-01 4.650492e-01
<GCONST> 1.361428e+02
<TRANSP> 7
 0.000000e+00 1.000000e+00 0.000000e+00 0.000000e+00 0.000000e+00 0.000000e+00 0.000000e+00
 0.000000e+00 6.621670e-01 3.378330e-01 0.000000e+00 0.000000e+00 0.000000e+00 0.000000e+00
 0.000000e+00 0.000000e+00 8.826681e-01 1.173319e-01 0.000000e+00 0.000000e+00 0.000000e+00
 0.000000e+00 0.000000e+00 0.000000e+00 8.314080e-01 1.685920e-01 0.000000e+00 0.000000e+00
 0.000000e+00 0.000000e+00 0.000000e+00 0.000000e+00 6.547460e-01 3.452540e-01 0.000000e+00
 0.000000e+00 0.000000e+00 0.000000e+00 0.000000e+00 0.000000e+00 6.099978e-01 3.900022e-01
 0.000000e+00 0.000000e+00 0.000000e+00 0.000000e+00 0.000000e+00 0.000000e+00 0.000000e+00
<ENDHMM>
