~o
<STREAMINFO> 1 39
<VECSIZE> 39<NULLD><MFCC_D_A_Z_0><DIAGC>
~h "vlv"
<BEGINHMM>
<NUMSTATES> 7
<STATE> 2
<MEAN> 39
 6.283881e+00 -1.633885e+00 3.620959e+00 -2.173177e+00 -5.607214e+00 -2.893950e+00 -4.118673e+00 -1.663242e-01 -1.422127e+00 -7.459007e-01 8.434979e-01 -1.171316e-01 7.019748e+00 7.480915e-01 -7.370500e-01 3.742236e-01 -8.412094e-01 -1.156660e+00 2.154715e-02 -3.553064e-01 1.905583e-01 -2.743810e-01 1.833253e-02 3.322620e-01 1.547966e-02 8.153397e-01 -4.070188e-01 1.375499e-01 -1.103081e-01 9.201384e-02 3.070686e-01 2.169757e-01 2.138324e-01 -8.184545e-02 -1.497829e-02 6.255048e-02 7.330011e-03 -2.590560e-02 -2.682864e-01
<VARIANCE> 39
 3.105174e+01 3.804637e+01 1.197947e+02 7.827583e+01 6.475739e+01 8.763062e+01 7.620223e+01 6.322005e+01 6.813174e+01 6.110104e+01 4.546523e+01 3.829545e+01 2.139777e+01 2.941694e+00 2.116265e+00 3.549244e+00 3.481929e+00 4.239437e+00 4.221018e+00 4.776072e+00 4.128793e+00 3.996710e+00 3.932418e+00 3.098295e+00 2.635564e+00 1.371398e+00 3.763437e-01 3.596141e-01 3.809407e-01 4.861538e-01 5.643532e-01 5.500942e-01 6.141801e-01 6.109660e-01 5.938699e-01 5.695956e-01 4.894479e-01 4.158890e-01 2.160887e-01
<GCONST> 1.292165e+02
<STATE> 3
<MEAN> 39
 3.561678e+00 -5.041980e-01 1.304646e+01 -3.122693e+00 -1.102776e+01 -2.711078e+00 -3.222557e+00 -1.716119e+00 -5.692567e+00 -2.026571e-01 1.469751e+00 -4.308866e-01 7.645788e+00 -6.173579e-02 1.350039e-01 1.497702e-01 -1.187006e-01 -5.693674e-02 2.333531e-01 7.356420e-02 -1.922007e-01 -1.080188e-01 1.353664e-01 -1.848464e-02 -9.108394e-02 -7.752749e-02 2.324040e-02 3.007277e-02 -1.067383e-01 8.804271e-02 1.113664e-01 -4.121113e-02 -1.011421e-02 2.180775e-02 5.911532e-02 -2.394568e-02 -3.436305e-02 6.598465e-03 -6.384788e-02
<VARIANCE> 39
 1.781507e+01 3.100002e+01 7.517113e+01 6.714242e+01 4.383382e+01 6.991035e+01 4.948014e+01 5.514170e+01 5.611992e+01 6.555234e+01 4.484008e+01 3.405134e+01 1.585645e+01 2.464167e-01 5.746056e-01 9.539155e-01 8.615248e-01 1.142198e+00 1.453803e+00 1.297687e+00 1.358490e+00 1.432418e+00 1.319120e+00 1.184841e+00 9.880315e-01 2.514671e-01 3.377627e-02 7.504164e-02 1.007177e-01 1.239385e-01 1.677284e-01 1.851794e-01 1.923198e-01 1.983634e-01 2.059186e-01 2.044445e-01 1.897372e-01 1.591629e-01 3.323998e-02
<GCONST> 9.192744e+01
<STATE> 4
<MEAN> 39
 1.021993e+01 -3.942728e+00 -6.007273e+00 -8.222719e+00 -1.611010e+00 3.296491e+00 -3.204731e+00 -2.829612e-01 9.527934e-02 -1.475951e-01 1.673353e+00 -5.695557e-01 7.737494e+00 2.583951e-02 3.566040e-02 -8.259842e-02 4.159185e-02 1.290785e-01 2.345209e-02 -4.768547e-02 -4.763104e-02 -3.242692e-03 -9.770164e-03 9.791448e-03 7.823296e-03 -6.723274e-02 -1.024563e-02 2.594613e-02 2.206866e-02 5.323466e-02 -8.435810e-03 -4.434446e-02 -1.998273e-03 -3.493897e-03 -6.197336e-04 2.341447e-03 -6.146932e-03 7.794030e-03 -3.326856e-02
<VARIANCE> 39
 1.502372e+01 3.749231e+01 8.080907e+01 1.100983e+02 7.758813e+01 1.311171e+02 1.061706e+02 7.593254e+01 6.380544e+01 5.626647e+01 4.973566e+01 3.946325e+01 1.861834e+01 1.602090e-01 4.831567e-01 6.251849e-01 9.407551e-01 1.041572e+00 1.277608e+00 1.340550e+00 1.239410e+00 1.291429e+00 1.305872e+00 1.173908e+00 1.034628e+00 2.084419e-01 2.131879e-02 5.103338e-02 7.427612e-02 1.081118e-01 1.295733e-01 1.660931e-01 1.769968e-01 1.765675e-01 1.810029e-01 1.847223e-01 1.678043e-01 1.467797e-01 2.147032e-02
<GCONST> 9.097649e+01
<STATE> 5
<MEAN> 39
 8.787930e+00 -1.769447e+00 -1.404046e+00 -4.381828e+00 -3.916158e+00 2.307342e-01 -3.531759e+00 -1.039680e+00 -1.390207e+00 2.743592e-01 2.005700e+00 -1.695819e-01 5.564244e+00 -4.002283e-02 1.694568e-01 -2.335664e-02 5.186284e-01 1.745585e-01 -2.028476e-01 9.035768e-03 -7.413666e-02 8.679853e-02 2.207392e-02 -1.382454e-01 3.687128e-03 -3.480301e-01 -5.674428e-02 7.265145e-02 1.288240e-03 1.065701e-01 6.285328e-02 -4.288668e-02 4.562374e-02 -3.341779e-02 3.416184e-02 -5.756887e-03 -5.530701e-02 1.020363e-02 -1.005986e-01
<VARIANCE> 39
 2.232831e+01 3.787304e+01 1.359093e+02 9.895707e+01 7.575648e+01 1.138345e+02 1.024428e+02 7.885989e+01 8.196556e+01 7.089288e+01 5.706305e+01 4.868476e+01 2.207931e+01 4.029543e-01 1.030948e+00 1.576144e+00 1.898280e+00 2.204490e+00 2.531649e+00 2.765718e+00 2.506638e+00 2.529999e+00 2.476171e+00 2.266091e+00 1.871260e+00 5.100592e-01 6.143011e-02 1.294679e-01 1.938282e-01 2.462420e-01 3.040827e-01 3.591211e-01 3.939186e-01 3.809187e-01 3.908309e-01 3.793539e-01 3.481678e-01 3.016209e-01 6.500608e-02
<GCONST> 1.132709e+02
<STATE> 6
<MEAN> 39
 4.310999e+00 1.370753e+00 5.646297e+00 1.268958e+00 -4.248554e+00 -2.829997e+00 -2.515084e+00 -2.197915e+00 -2.773016e+00 -1.272977e-01 1.548195e-01 -3.060853e-01 2.406245e+00 -9.658468e-01 9.246059e-01 -5.382006e-01 9.242446e-01 1.218948e+00 9.760063e-02 5.907280e-01 -2.145018e-01 3.124395e-01 -1.968513e-02 -2.499221e-01 4.418363e-02 -1.360594e+00 -2.329890e-01 4.641779e-02 -9.183377e-02 -4.566742e-02 1.715801e-01 1.887191e-01 6.305060e-02 5.331055e-03 4.554077e-03 7.583096e-04 -4.525967e-03 -2.761009e-02 -1.193974e-01
<VARIANCE> 39
 3.874901e+01 4.437523e+01 1.152940e+02 7.728339e+01 7.787825e+01 7.778036e+01 7.505889e+01 6.684101e+01 7.438625e+01 6.282714e+01 4.867064e+01 3.847237e+01 3.691501e+01 3.043890e+00 2.578683e+00 4.101398e+00 4.084199e+00 4.731501e+00 5.104743e+00 5.040535e+00 4.695078e+00 4.420849e+00 4.283165e+00 3.491019e+00 2.820473e+00 2.684296e+00 2.750334e-01 4.007074e-01 4.291680e-01 5.241537e-01 7.040978e-01 6.946244e-01 7.187342e-01 7.204446e-01 6.667988e-01 6.330045e-01 5.558798e-01 4.449939e-01 3.144766e-01
<GCONST> 1.340008e+02
<TRANSP> 7
 0.000000e+00 1.000000e+00 0.000000e+00 0.000000e+00 0.000000e+00 0.000000e+00 0.000000e+00
 0.000000e+00 6.891496e-01 3.108504e-01 0.000000e+00 0.000000e+00 0.000000e+00 0.000000e+00
 0.000000e+00 0.000000e+00 8.101146e-01 1.898855e-01 0.000000e+00 0.000000e+00 0.000000e+00
 0.000000e+00 0.000000e+00 0.000000e+00 8.595985e-01 1.404015e-01 0.000000e+00 0.000000e+00
 0.000000e+00 0.000000e+00 0.000000e+00 0.000000e+00 7.044356e-01 2.955644e-01 0.000000e+00
 0.000000e+00 0.000000e+00 0.000000e+00 0.000000e+00 0.000000e+00 6.945499e-01 3.054501e-01
 0.000000e+00 0.000000e+00 0.000000e+00 0.000000e+00 0.000000e+00 0.000000e+00 0.000000e+00
<ENDHMM>
