~o
<STREAMINFO> 1 39
<VECSIZE> 39<NULLD><MFCC_D_A_Z_0><DIAGC>
~h "vsv"
<BEGINHMM>
<NUMSTATES> 7
<STATE> 2
<MEAN> 39
 5.811194e+00 -2.642119e+00 2.821086e+00 -2.205372e+00 -4.989444e+00 -3.949771e+00 -2.685888e+00 6.528878e-01 4.283394e-01 -2.842593e-01 -5.527170e-01 -3.502844e-01 7.861600e+00 1.192594e+00 -1.474006e+00 -1.191755e-01 -1.025789e+00 -1.200757e+00 -5.307803e-01 -6.903954e-01 6.987466e-01 4.362300e-01 1.443772e-01 4.505670e-02 -9.241401e-03 1.424825e+00 -5.607135e-01 8.050390e-02 -1.140478e-01 1.118498e-01 2.864264e-01 2.338278e-01 3.097295e-01 1.927629e-02 -2.661711e-02 2.861769e-02 7.685083e-03 1.506804e-02 -3.318608e-01
<VARIANCE> 39
 2.439288e+01 3.944165e+01 7.001395e+01 5.273951e+01 5.910216e+01 7.024480e+01 6.908765e+01 5.638997e+01 5.442858e+01 4.757140e+01 4.003491e+01 3.519102e+01 2.642130e+01 3.308945e+00 2.377506e+00 2.790472e+00 3.486047e+00 3.937248e+00 4.345661e+00 4.984581e+00 4.211645e+00 4.046557e+00 3.589175e+00 3.123562e+00 2.825342e+00 1.934346e+00 4.550275e-01 4.431519e-01 3.959457e-01 5.260637e-01 5.999393e-01 6.296802e-01 6.877901e-01 6.114819e-01 5.742853e-01 5.339518e-01 4.883077e-01 4.129518e-01 3.401154e-01
<GCONST> 1.286064e+02
<STATE> 3
<MEAN> 39
 6.738944e+00 -4.924243e+00 1.142859e+00 -3.936496e+00 -6.118452e+00 -3.164506e+00 -1.807173e+00 2.255267e+00 1.358989e+00 3.733391e-01 1.313262e-02 -9.298575e-01 9.239111e+00 -1.726379e-02 -4.602781e-01 -1.705528e-01 -1.958852e-01 5.131836e-03 4.747790e-02 2.380406e-01 3.529300e-01 1.539269e-01 -6.217812e-02 -9.369288e-02 -8.528137e-02 3.175316e-01 -9.774287e-02 2.218544e-01 1.111116e-02 1.623329e-01 1.934557e-01 6.318855e-02 8.196809e-02 -1.363976e-01 -9.663711e-02 -5.317570e-02 -1.843602e-02 6.644757e-03 -2.159621e-01
<VARIANCE> 39
 1.683788e+01 3.263463e+01 8.327239e+01 5.802697e+01 6.385265e+01 8.915022e+01 7.973820e+01 6.847506e+01 7.012411e+01 5.832422e+01 4.873877e+01 4.299865e+01 2.305864e+01 4.711396e-01 1.028939e+00 1.490932e+00 1.643064e+00 2.090035e+00 2.453096e+00 2.516641e+00 2.574635e+00 2.506390e+00 2.318064e+00 1.996339e+00 1.748911e+00 4.868951e-01 1.069386e-01 1.854601e-01 1.935488e-01 2.827784e-01 3.395690e-01 3.760242e-01 4.294818e-01 4.303213e-01 4.121583e-01 3.845816e-01 3.421812e-01 3.012837e-01 1.096080e-01
<GCONST> 1.118913e+02
<STATE> 4
<MEAN> 39
 6.708838e+00 -8.089108e+00 -1.671464e+00 -5.143163e+00 -3.561885e+00 -5.353020e-01 3.586665e-01 3.012401e+00 1.487641e+00 -1.260113e+00 -1.084792e+00 -1.236401e+00 1.135968e+01 1.796639e-02 1.087978e-02 -1.023824e-01 6.782393e-02 1.412191e-01 -4.727813e-02 -1.458797e-02 5.712023e-02 8.906518e-03 -4.288650e-02 -4.045939e-02 3.373793e-03 -6.459387e-02 8.579583e-03 8.818570e-02 1.204880e-02 4.940728e-02 1.613930e-02 -2.918260e-02 -4.557918e-02 -2.915916e-02 -1.177302e-02 1.990467e-02 6.941782e-03 6.963662e-03 -8.598363e-02
<VARIANCE> 39
 1.600973e+01 2.887667e+01 7.505406e+01 4.909911e+01 6.939730e+01 8.061441e+01 6.887254e+01 6.220132e+01 5.768990e+01 4.688771e+01 4.181531e+01 3.664163e+01 2.121520e+01 2.015927e-01 5.144059e-01 6.607027e-01 7.955711e-01 1.036102e+00 1.227303e+00 1.362134e+00 1.465804e+00 1.327646e+00 1.165527e+00 1.080371e+00 9.739065e-01 2.451570e-01 3.131317e-02 6.793104e-02 7.659194e-02 1.091546e-01 1.415562e-01 1.613786e-01 1.907282e-01 2.091782e-01 1.885298e-01 1.741939e-01 1.600858e-01 1.451499e-01 3.760308e-02
<GCONST> 9.001701e+01
<STATE> 5
<MEAN> 39
 6.847476e+00 -4.966881e+00 5.060246e-01 -3.016870e+00 -4.372248e+00 -3.628848e+00 -2.109917e+00 3.125091e+00 1.547669e+00 -3.758432e-01 -1.145505e+00 -1.049441e+00 8.282897e+00 -3.656229e-03 8.807303e-01 1.315736e-01 6.279553e-01 3.127873e-01 -1.776778e-01 -1.323149e-01 -3.900699e-01 -2.843157e-01 1.209505e-01 2.712790e-02 6.390405e-02 -1.001128e+00 -1.406482e-01 3.090136e-01 3.004464e-02 2.374676e-01 1.729693e-01 6.549639e-02 1.449225e-01 -2.210247e-01 -1.100588e-01 1.614297e-02 -1.266465e-02 -2.501622e-03 -3.463351e-01
<VARIANCE> 39
 1.534421e+01 3.119502e+01 7.262331e+01 4.967104e+01 6.110487e+01 7.836062e+01 7.724935e+01 6.654221e+01 6.892294e+01 5.866714e+01 5.038177e+01 4.549682e+01 2.547319e+01 5.845699e-01 1.234803e+00 1.752753e+00 1.909584e+00 2.410988e+00 2.653104e+00 3.021099e+00 3.167078e+00 3.023381e+00 2.633048e+00 2.333032e+00 2.067237e+00 8.201224e-01 1.197871e-01 2.098321e-01 2.551101e-01 3.310701e-01 3.848103e-01 4.312021e-01 5.053055e-01 5.306171e-01 4.899357e-01 4.420857e-01 3.887787e-01 3.392772e-01 1.708882e-01
<GCONST> 1.161937e+02
<STATE> 6
<MEAN> 39
 3.758818e+00 1.159111e+00 2.575975e+00 1.242262e+00 -1.764122e+00 -4.171221e+00 -1.126697e+00 4.244797e-01 -1.586633e-01 -2.330301e-01 -1.300182e+00 -3.213217e-01 2.086196e+00 -1.525727e+00 1.835755e+00 1.106051e-01 1.400404e+00 1.324693e+00 6.783918e-01 5.921456e-01 -8.110967e-01 -3.934337e-01 -4.675386e-02 -4.165887e-02 -9.794483e-02 -2.288881e+00 -3.057835e-01 -9.447351e-02 -7.021403e-02 -3.855692e-02 6.890538e-02 1.909902e-01 6.507240e-02 -1.954316e-03 6.234130e-03 -7.191395e-03 -6.948848e-04 -3.397917e-02 -1.218204e-02
<VARIANCE> 39
 3.762539e+01 4.576199e+01 6.641929e+01 5.502197e+01 6.464023e+01 7.119024e+01 7.037265e+01 6.882384e+01 7.174438e+01 6.004652e+01 4.954782e+01 4.320287e+01 4.560863e+01 3.803417e+00 3.162085e+00 3.390773e+00 4.483557e+00 4.372650e+00 5.116924e+00 5.370538e+00 5.521614e+00 5.151235e+00 4.506177e+00 4.077164e+00 3.428541e+00 4.319069e+00 3.901336e-01 5.054609e-01 4.265903e-01 6.064065e-01 6.610867e-01 7.129399e-01 7.416235e-01 7.830972e-01 7.645631e-01 6.873432e-01 5.994698e-01 5.200577e-01 4.861136e-01
<GCONST> 1.362586e+02
<TRANSP> 7
 0.000000e+00 1.000000e+00 0.000000e+00 0.000000e+00 0.000000e+00 0.000000e+00 0.000000e+00
 0.000000e+00 4.920165e-01 5.079835e-01 0.000000e+00 0.000000e+00 0.000000e+00 0.000000e+00
 0.000000e+00 0.000000e+00 6.536234e-01 3.463766e-01 0.000000e+00 0.000000e+00 0.000000e+00
 0.000000e+00 0.000000e+00 0.000000e+00 8.776130e-01 1.223870e-01 0.000000e+00 0.000000e+00
 0.000000e+00 0.000000e+00 0.000000e+00 0.000000e+00 6.685978e-01 3.314023e-01 0.000000e+00
 0.000000e+00 0.000000e+00 0.000000e+00 0.000000e+00 0.000000e+00 6.366355e-01 3.633644e-01
 0.000000e+00 0.000000e+00 0.000000e+00 0.000000e+00 0.000000e+00 0.000000e+00 0.000000e+00
<ENDHMM>
